booster[0]:
0:[f38<0.150546] yes=1,no=2,missing=2
	1:[f37<0.634291] yes=3,no=4,missing=4
		3:[f93<8.5] yes=7,no=8,missing=8
			7:[f4<213750] yes=15,no=16,missing=15
				15:leaf=-0.0333333
				16:leaf=-0.0105263
			8:[f76<0.024] yes=17,no=18,missing=18
				17:leaf=-0.0251852
				18:[f103<0.05845] yes=27,no=28,missing=28
					27:[f3<355500] yes=41,no=42,missing=42
						41:leaf=0.0209524
						42:leaf=-0
					28:[f27<-464] yes=43,no=44,missing=43
						43:[f245<0.0488823] yes=63,no=64,missing=63
							63:[f23<-17796] yes=83,no=84,missing=83
								83:leaf=-0.0208
								84:leaf=0.00756757
							64:[f24<-3583] yes=85,no=86,missing=85
								85:leaf=0.005
								86:leaf=-0.0222222
						44:leaf=0.00888889
		4:[f16<0.0974] yes=9,no=10,missing=9
			9:leaf=-0.0334426
			10:leaf=-0.01
	2:[f37<0.344441] yes=5,no=6,missing=6
		5:[f38<0.496567] yes=11,no=12,missing=11
			11:[f241<0.114069] yes=19,no=20,missing=20
				19:[f19<1] yes=29,no=30,missing=29
					29:[f125<1] yes=45,no=46,missing=45
						45:[f82<0.01845] yes=65,no=66,missing=65
							65:leaf=-0.0153846
							66:leaf=-0.0327273
						46:[f25<-2917] yes=67,no=68,missing=67
							67:[f91<2.5] yes=87,no=88,missing=88
								87:leaf=-0.0254545
								88:leaf=0.00705882
							68:[f36<0.307476] yes=89,no=90,missing=89
								89:leaf=0.00780488
								90:leaf=-0.0231579
					30:[f37<0.229185] yes=47,no=48,missing=48
						47:[f82<0.0888] yes=69,no=70,missing=69
							69:[f29<0.5] yes=91,no=92,missing=92
								91:leaf=-0.0228037
								92:leaf=-0
							70:leaf=0.00190476
						48:[f25<-2832] yes=71,no=72,missing=71
							71:[f245<0.0473597] yes=93,no=94,missing=93
								93:leaf=-0.03
								94:leaf=-0
							72:leaf=-0.0351807
				20:[f161<1] yes=31,no=32,missing=31
					31:[f8<1.5] yes=49,no=50,missing=49
						49:[f94<0.0030955] yes=73,no=74,missing=73
							73:leaf=-0.01
							74:[f28<1.5] yes=95,no=96,missing=95
								95:leaf=-0.0326857
								96:leaf=-0.0144
						50:leaf=-0.0123077
					32:leaf=-0.004
			12:[f25<-779] yes=21,no=22,missing=21
				21:[f37<0.0241815] yes=33,no=34,missing=34
					33:leaf=-0.012
					34:[f11<0.2938] yes=51,no=52,missing=51
						51:[f11<0.0211] yes=75,no=76,missing=76
							75:[f82<0.0108] yes=97,no=98,missing=98
								97:leaf=-0.0311111
								98:leaf=-0.005
							76:[f4<281250] yes=99,no=100,missing=99
								99:leaf=-0.0374245
								100:leaf=-0.0215385
						52:leaf=-0.01
				22:[f23<-16521] yes=35,no=36,missing=35
					35:leaf=-0.0285714
					36:[f26<-140] yes=55,no=56,missing=55
						55:leaf=-0.0164706
						56:leaf=0.004
		6:[f38<0.446287] yes=13,no=14,missing=13
			13:[f36<0.401257] yes=23,no=24,missing=23
				23:[f28<0.5] yes=37,no=38,missing=37
					37:[f25<-124] yes=57,no=58,missing=57
						57:[f245<0.0389249] yes=77,no=78,missing=77
							77:[f650<-17.5] yes=101,no=102,missing=102
								101:leaf=-0.015
								102:leaf=-0.0380488
							78:[f106<0.95655] yes=103,no=104,missing=104
								103:leaf=-0.01
								104:leaf=-0.0326688
						58:[f243<103500] yes=79,no=80,missing=79
							79:leaf=-0.0290909
							80:leaf=-0
					38:[f106<0.97545] yes=59,no=60,missing=60
						59:leaf=-0.00173913
						60:[f1<11630.2] yes=81,no=82,missing=81
							81:[f24<-502.5] yes=105,no=106,missing=106
								105:leaf=-0.0189474
								106:leaf=-0
							82:[f36<0.275756] yes=107,no=108,missing=107
								107:leaf=-0.0310112
								108:leaf=-0.0105263
				24:leaf=-0.0374935
			14:[f36<0.13494] yes=25,no=26,missing=26
				25:leaf=-0.0176
				26:[f193<1] yes=39,no=40,missing=39
					39:[f671<31.5] yes=61,no=62,missing=61
						61:leaf=-0.0378595
						62:leaf=-0.0208
					40:leaf=-0.0164706
booster[1]:
0:[f38<0.281519] yes=1,no=2,missing=2
	1:[f37<0.201745] yes=3,no=4,missing=4
		3:[f4<175500] yes=7,no=8,missing=7
			7:[f94<0.0080435] yes=15,no=16,missing=15
				15:leaf=0.00476307
				16:[f243<39187.5] yes=31,no=32,missing=31
					31:leaf=-0.00605347
					32:leaf=-0.0255859
			8:[f125<1] yes=17,no=18,missing=17
				17:leaf=-0.00210276
				18:leaf=0.0234909
		4:[f36<0.409927] yes=9,no=10,missing=10
			9:[f669<21.5] yes=19,no=20,missing=20
				19:leaf=0.00658779
				20:[f38<0.123345] yes=33,no=34,missing=34
					33:[f36<0.249391] yes=55,no=56,missing=56
						55:leaf=-0.0186742
						56:leaf=0.00465291
					34:[f211<1] yes=57,no=58,missing=57
						57:[f244<0.230688] yes=79,no=80,missing=79
							79:[f81<0.05925] yes=105,no=106,missing=106
								105:leaf=-0.0141127
								106:leaf=-0.0341236
							80:leaf=-0.00760423
						58:leaf=-0.00144701
			10:[f12<0.0838] yes=21,no=22,missing=22
				21:[f20<0.0299] yes=35,no=36,missing=35
					35:[f27<-4639] yes=59,no=60,missing=59
						59:[f241<0.082879] yes=81,no=82,missing=82
							81:leaf=0.00457328
							82:[f27<-7293.5] yes=107,no=108,missing=107
								107:leaf=-0.0323271
								108:leaf=-0.0069082
						60:[f241<0.249239] yes=83,no=84,missing=83
							83:leaf=-0.0342983
							84:leaf=-0.0152495
					36:leaf=0.00479961
				22:[f37<0.459754] yes=37,no=38,missing=38
					37:[f37<0.430632] yes=61,no=62,missing=62
						61:[f245<0.0488823] yes=85,no=86,missing=85
							85:[f245<0.0465419] yes=109,no=110,missing=109
								109:leaf=-0.0224595
								110:leaf=0.00468935
							86:leaf=-0.0329098
						62:leaf=-0.00755173
					38:[f38<0.139809] yes=63,no=64,missing=64
						63:[f238<1] yes=87,no=88,missing=87
							87:[f27<-2486.5] yes=111,no=112,missing=111
								111:leaf=-0.0340506
								112:leaf=-0.0118868
							88:leaf=-0.00768174
						64:[f85<0.00675] yes=89,no=90,missing=89
							89:[f10<5.5] yes=113,no=114,missing=114
								113:leaf=-0.0371146
								114:leaf=-0.0204027
							90:leaf=-0.0194429
	2:[f37<0.338014] yes=5,no=6,missing=6
		5:[f37<0.072005] yes=11,no=12,missing=12
			11:[f7<1.5] yes=23,no=24,missing=24
				23:[f2<358038] yes=39,no=40,missing=39
					39:[f27<-3232.5] yes=65,no=66,missing=65
						65:[f37<0.0309069] yes=91,no=92,missing=92
							91:leaf=-0.0114545
							92:leaf=-0.0310831
						66:leaf=0.00366611
					40:leaf=-0.0310817
				24:[f24<-974.5] yes=41,no=42,missing=41
					41:leaf=-0.0138157
					42:leaf=0.0134929
			12:[f36<0.205433] yes=25,no=26,missing=26
				25:[f95<3] yes=43,no=44,missing=43
					43:[f94<0.017623] yes=67,no=68,missing=67
						67:leaf=-0.0317894
						68:leaf=-0.00369931
					44:leaf=0.00336094
				26:[f38<0.361445] yes=45,no=46,missing=46
					45:[f93<1.5] yes=69,no=70,missing=69
						69:[f1<34848] yes=93,no=94,missing=93
							93:[f243<58125] yes=115,no=116,missing=115
								115:leaf=-0.017586
								116:leaf=-0.0345459
							94:leaf=-0.00210056
						70:leaf=0.000385479
					46:[f24<-2294.5] yes=71,no=72,missing=71
						71:[f93<20.5] yes=95,no=96,missing=95
							95:[f501<0.5] yes=117,no=118,missing=118
								117:leaf=-0.0160377
								118:leaf=-0.0361194
							96:leaf=-0.0115227
						72:[f25<-133] yes=97,no=98,missing=97
							97:[f84<0.2352] yes=119,no=120,missing=119
								119:leaf=-0.0298653
								120:leaf=-0.0117361
							98:leaf=-0.00683833
		6:[f36<0.190297] yes=13,no=14,missing=14
			13:[f64<1] yes=27,no=28,missing=27
				27:[f94<0.0092545] yes=47,no=48,missing=47
					47:leaf=-0.0166184
					48:leaf=-0.0330882
				28:[f3<416250] yes=49,no=50,missing=50
					49:leaf=-0.0261077
					50:leaf=0.000411299
			14:[f38<0.349876] yes=29,no=30,missing=29
				29:[f37<0.531088] yes=51,no=52,missing=51
					51:[f37<0.527508] yes=75,no=76,missing=76
						75:[f27<-1732.5] yes=99,no=100,missing=99
							99:[f38<0.341718] yes=121,no=122,missing=121
								121:leaf=-0.033898
								122:leaf=-0.0100471
							100:[f27<-1494] yes=123,no=124,missing=123
								123:leaf=-0.00183656
								124:leaf=-0.0267075
						76:leaf=-0.0127901
					52:[f92<7.5] yes=77,no=78,missing=77
						77:[f73<7] yes=101,no=102,missing=101
							101:[f241<0.0388444] yes=125,no=126,missing=125
								125:leaf=-0.00578507
								126:leaf=-0.0298119
							102:[f25<-582] yes=127,no=128,missing=127
								127:leaf=-0.0364514
								128:leaf=-0.0265824
						78:[f1<31549.5] yes=103,no=104,missing=103
							103:leaf=-0.0314844
							104:leaf=-0.0019436
				30:[f117<1] yes=53,no=54,missing=53
					53:leaf=-0.0368072
					54:leaf=-0.0183714
booster[2]:
0:[f38<0.139809] yes=1,no=2,missing=2
	1:[f37<0.159957] yes=3,no=4,missing=4
		3:[f91<0.5] yes=7,no=8,missing=8
			7:leaf=0.0178632
			8:leaf=-0.00704326
		4:[f23<-14336] yes=9,no=10,missing=9
			9:[f4<132750] yes=15,no=16,missing=15
				15:[f38<0.104122] yes=27,no=28,missing=28
					27:leaf=-0.0216096
					28:leaf=0.00670219
				16:[f25<-1842] yes=29,no=30,missing=29
					29:leaf=-0.035917
					30:leaf=-0.0199637
			10:[f2<231750] yes=17,no=18,missing=17
				17:leaf=-0.0269429
				18:[f93<11.5] yes=31,no=32,missing=32
					31:leaf=-0.0227824
					32:[f24<-1146.5] yes=47,no=48,missing=48
						47:[f88<0.02725] yes=65,no=66,missing=66
							65:leaf=-0.025215
							66:leaf=-0.00253693
						48:[f37<0.582821] yes=67,no=68,missing=68
							67:[f242<0.303389] yes=83,no=84,missing=83
								83:leaf=0.0280319
								84:leaf=0.00244773
							68:leaf=-0.0113461
	2:[f37<0.25357] yes=5,no=6,missing=6
		5:[f23<-13018] yes=11,no=12,missing=11
			11:[f38<0.384212] yes=19,no=20,missing=20
				19:[f67<0.35415] yes=33,no=34,missing=34
					33:[f3<470250] yes=49,no=50,missing=50
						49:leaf=-0.0341957
						50:leaf=-0.011165
					34:[f25<-2741] yes=51,no=52,missing=51
						51:[f2<575341] yes=69,no=70,missing=69
							69:leaf=-0.0226246
							70:leaf=-0.00657706
						52:leaf=0.0115917
				20:[f37<0.0241815] yes=35,no=36,missing=36
					35:leaf=-0.0172922
					36:[f73<6] yes=53,no=54,missing=53
						53:leaf=-0.0162774
						54:[f27<-3979.5] yes=71,no=72,missing=71
							71:leaf=-0.0368223
							72:[f24<-422] yes=85,no=86,missing=85
								85:leaf=-0.0315203
								86:leaf=-0.0113808
			12:[f122<1] yes=21,no=22,missing=21
				21:[f27<-8328.5] yes=37,no=38,missing=37
					37:leaf=0.0139578
					38:[f94<0.0199675] yes=55,no=56,missing=55
						55:[f238<1] yes=73,no=74,missing=73
							73:[f73<8] yes=87,no=88,missing=87
								87:leaf=0.000569996
								88:leaf=-0.0272388
							74:[f38<0.272948] yes=89,no=90,missing=89
								89:leaf=0.0214047
								90:leaf=-0.00865435
						56:[f2<195012] yes=75,no=76,missing=75
							75:leaf=-0.022531
							76:[f25<-3173] yes=91,no=92,missing=91
								91:leaf=-0.020951
								92:leaf=0.0117986
				22:[f93<8.5] yes=39,no=40,missing=40
					39:leaf=-0.0111799
					40:leaf=-0.0342907
		6:[f36<0.14331] yes=13,no=14,missing=14
			13:[f36<0.066566] yes=23,no=24,missing=24
				23:leaf=0.00300416
				24:[f26<-200] yes=41,no=42,missing=41
					41:[f211<1] yes=57,no=58,missing=57
						57:leaf=-0.0303336
						58:leaf=-0.0017195
					42:leaf=-0.00454581
			14:[f38<0.383354] yes=25,no=26,missing=25
				25:[f91<5.5] yes=43,no=44,missing=43
					43:[f737<15908.8] yes=59,no=60,missing=59
						59:[f28<1.5] yes=77,no=78,missing=77
							77:[f575<82856.2] yes=93,no=94,missing=94
								93:leaf=-0.0124075
								94:leaf=-0.0330324
							78:[f241<0.0474614] yes=95,no=96,missing=95
								95:leaf=-0.00483936
								96:leaf=-0.0260244
						60:leaf=-0.00979596
					44:[f70<0.25] yes=61,no=62,missing=61
						61:[f26<-197] yes=79,no=80,missing=79
							79:[f103<0.0358] yes=97,no=98,missing=98
								97:leaf=-0.01092
								98:leaf=-0.0303031
							80:[f25<-3664] yes=99,no=100,missing=99
								99:leaf=-0.0203053
								100:leaf=0.00308751
						62:leaf=-0.00151368
				26:[f37<0.554919] yes=45,no=46,missing=46
					45:[f25<-134] yes=63,no=64,missing=63
						63:[f37<0.552611] yes=81,no=82,missing=82
							81:[f171<1] yes=101,no=102,missing=101
								101:leaf=-0.0345239
								102:leaf=-0.0154158
							82:leaf=-0.0179314
						64:leaf=-0.0182331
					46:leaf=-0.0368579
booster[3]:
0:[f38<0.140679] yes=1,no=2,missing=2
	1:[f37<0.159957] yes=3,no=4,missing=4
		3:[f4<168750] yes=7,no=8,missing=7
			7:leaf=-0.00625504
			8:leaf=0.0209396
		4:[f4<132750] yes=9,no=10,missing=9
			9:[f2<251100] yes=15,no=16,missing=15
				15:leaf=-0.0236646
				16:[f23<-16396] yes=27,no=28,missing=27
					27:leaf=-0.0191455
					28:[f37<0.396221] yes=49,no=50,missing=50
						49:leaf=-0.00613278
						50:leaf=0.0241077
			10:[f23<-11363] yes=17,no=18,missing=17
				17:[f94<0.0173205] yes=29,no=30,missing=29
					29:[f36<0.511477] yes=51,no=52,missing=52
						51:leaf=-0.00170989
						52:[f241<0.101033] yes=77,no=78,missing=78
							77:leaf=-0.00825378
							78:leaf=-0.0311389
					30:leaf=-0.0321925
				18:[f242<0.349139] yes=31,no=32,missing=31
					31:leaf=-0.0206225
					32:leaf=0.0035183
	2:[f37<0.338014] yes=5,no=6,missing=5
		5:[f23<-13226] yes=11,no=12,missing=11
			11:[f38<0.324101] yes=19,no=20,missing=20
				19:[f4<173250] yes=33,no=34,missing=33
					33:[f73<14] yes=53,no=54,missing=53
						53:leaf=-0.0297008
						54:leaf=-0.00712805
					34:[f26<-678.5] yes=55,no=56,missing=55
						55:leaf=0.0152662
						56:leaf=-0.00142361
				20:[f161<1] yes=35,no=36,missing=35
					35:[f13<0.281] yes=57,no=58,missing=57
						57:[f37<0.332866] yes=79,no=80,missing=79
							79:[f37<0.0241815] yes=95,no=96,missing=96
								95:leaf=-0.0183243
								96:leaf=-0.0333018
							80:leaf=-0.0104039
						58:leaf=-0.0121938
					36:[f37<0.233204] yes=59,no=60,missing=60
						59:leaf=-0.020093
						60:leaf=-0.00579294
			12:[f37<0.0721909] yes=21,no=22,missing=22
				21:[f38<0.444514] yes=37,no=38,missing=38
					37:[f243<73125] yes=61,no=62,missing=61
						61:leaf=-0.00975829
						62:leaf=-0.0258207
					38:[f94<0.0127485] yes=63,no=64,missing=63
						63:leaf=-0.00478602
						64:leaf=0.020301
				22:[f36<0.217824] yes=39,no=40,missing=40
					39:[f38<0.336092] yes=65,no=66,missing=65
						65:[f94<0.018119] yes=81,no=82,missing=81
							81:leaf=-0.0124596
							82:leaf=0.0175162
						66:[f96<3] yes=83,no=84,missing=83
							83:leaf=-0.0273797
							84:leaf=0.000771882
					40:[f13<0.02155] yes=67,no=68,missing=68
						67:leaf=-0.000783209
						68:[f27<-9289.5] yes=85,no=86,missing=85
							85:leaf=-0.00305978
							86:[f241<0.0134862] yes=97,no=98,missing=97
								97:leaf=-0.00129765
								98:leaf=-0.028221
		6:[f38<0.391914] yes=13,no=14,missing=13
			13:[f28<0.5] yes=23,no=24,missing=23
				23:[f36<0.132862] yes=41,no=42,missing=42
					41:[f37<0.507855] yes=69,no=70,missing=70
						69:leaf=-0.0255123
						70:leaf=-0.00292313
					42:[f26<-341.5] yes=71,no=72,missing=71
						71:[f680<5992.33] yes=87,no=88,missing=88
							87:[f669<3] yes=99,no=100,missing=100
								99:leaf=-0.0276087
								100:leaf=-0.00487447
							88:[f124<1] yes=101,no=102,missing=101
								101:leaf=-0.0343333
								102:leaf=-0.0166576
						72:[f86<0.01355] yes=89,no=90,missing=89
							89:[f106<0.96305] yes=103,no=104,missing=104
								103:leaf=-0.0103117
								104:leaf=-0.0305675
							90:leaf=-0.00932084
				24:[f106<0.97545] yes=43,no=44,missing=44
					43:leaf=-0.00647158
					44:[f244<0.116449] yes=73,no=74,missing=73
						73:[f150<1] yes=91,no=92,missing=91
							91:leaf=0.00341633
							92:[f10<0.5] yes=105,no=106,missing=105
								105:leaf=-0.00870592
								106:leaf=-0.0312421
						74:[f13<0.15865] yes=93,no=94,missing=93
							93:[f74<0.03895] yes=107,no=108,missing=108
								107:leaf=-0.013309
								108:leaf=-0.0330688
							94:leaf=-0.0103595
			14:[f36<0.169058] yes=25,no=26,missing=26
				25:[f245<0.0679195] yes=45,no=46,missing=45
					45:[f245<0.0488586] yes=75,no=76,missing=75
						75:leaf=-0.014924
						76:leaf=-0.031972
					46:leaf=-0.00672189
				26:[f671<31.5] yes=47,no=48,missing=47
					47:leaf=-0.0356253
					48:leaf=-0.0175914
booster[4]:
0:[f38<0.150546] yes=1,no=2,missing=2
	1:[f37<0.543398] yes=3,no=4,missing=4
		3:[f27<-3938] yes=7,no=8,missing=7
			7:[f94<0.0131115] yes=15,no=16,missing=15
				15:leaf=0.014653
				16:[f17<1] yes=31,no=32,missing=31
					31:[f27<-5487] yes=51,no=52,missing=51
						51:[f27<-7268] yes=69,no=70,missing=69
							69:leaf=-0.0125724
							70:leaf=-0.0298276
						52:leaf=-0.00346786
					32:leaf=0.0136472
			8:[f104<0.98185] yes=17,no=18,missing=17
				17:[f93<20] yes=33,no=34,missing=34
					33:leaf=-0.0309538
					34:[f26<-825.5] yes=53,no=54,missing=53
						53:leaf=0.000388768
						54:[f98<1] yes=71,no=72,missing=71
							71:[f24<-1189.5] yes=89,no=90,missing=90
								89:leaf=-0.0126542
								90:leaf=-0.0304164
							72:leaf=-0.00174052
				18:leaf=0.00694489
		4:[f36<0.474482] yes=9,no=10,missing=10
			9:[f36<0.301942] yes=19,no=20,missing=20
				19:leaf=-0.0257578
				20:leaf=0.00264763
			10:[f24<-367.5] yes=21,no=22,missing=21
				21:[f88<0.0095] yes=35,no=36,missing=35
					35:leaf=-0.0326099
					36:leaf=-0.0150511
				22:leaf=-0.0106355
	2:[f37<0.338014] yes=5,no=6,missing=5
		5:[f38<0.471355] yes=11,no=12,missing=11
			11:[f24<-1182.5] yes=23,no=24,missing=23
				23:[f161<1] yes=37,no=38,missing=37
					37:[f60<1] yes=55,no=56,missing=55
						55:[f38<0.267168] yes=73,no=74,missing=74
							73:[f2<654750] yes=91,no=92,missing=91
								91:leaf=-0.0253762
								92:leaf=0.00789959
							74:[f37<0.149046] yes=93,no=94,missing=93
								93:leaf=-0.0222913
								94:leaf=-0.0314942
						56:leaf=-0.00832314
					38:leaf=-0.00315051
				24:[f125<1] yes=39,no=40,missing=39
					39:[f93<7.5] yes=57,no=58,missing=58
						57:leaf=-0.0122379
						58:[f234<1] yes=75,no=76,missing=75
							75:leaf=-0.0314411
							76:leaf=-0.014903
					40:[f4<101250] yes=59,no=60,missing=59
						59:[f243<23250] yes=77,no=78,missing=77
							77:leaf=-0.00591993
							78:[f107<0.6736] yes=95,no=96,missing=95
								95:leaf=-0.0336108
								96:leaf=-0.0154121
						60:[f95<3] yes=79,no=80,missing=79
							79:[f73<13] yes=97,no=98,missing=97
								97:leaf=-0.0203607
								98:leaf=-0.00207633
							80:[f27<-2829.5] yes=99,no=100,missing=99
								99:leaf=-0.0160354
								100:leaf=0.0240412
			12:[f37<0.3324] yes=25,no=26,missing=25
				25:[f93<19.5] yes=41,no=42,missing=41
					41:[f13<0.27625] yes=61,no=62,missing=61
						61:[f37<0.0934185] yes=81,no=82,missing=82
							81:[f242<0.248031] yes=101,no=102,missing=101
								101:leaf=-0.0314933
								102:leaf=-0.0163536
							82:[f243<145125] yes=103,no=104,missing=103
								103:leaf=-0.0342836
								104:leaf=-0.0231984
						62:leaf=-0.012032
					42:[f38<0.639706] yes=63,no=64,missing=64
						63:leaf=0.00146073
						64:leaf=-0.0273701
				26:leaf=-0.0089258
		6:[f38<0.449855] yes=13,no=14,missing=13
			13:[f36<0.114354] yes=27,no=28,missing=28
				27:[f3<321750] yes=43,no=44,missing=44
					43:leaf=-0.0244846
					44:leaf=-0.000954521
				28:[f36<0.401712] yes=45,no=46,missing=45
					45:[f28<0.5] yes=65,no=66,missing=65
						65:[f245<0.0387472] yes=83,no=84,missing=83
							83:[f650<-58] yes=105,no=106,missing=105
								105:leaf=-0.0354954
								106:leaf=-0.0148562
							84:[f245<0.0389934] yes=107,no=108,missing=107
								107:leaf=-0.00995842
								108:leaf=-0.0301843
						66:[f145<1] yes=85,no=86,missing=85
							85:[f245<0.0293966] yes=109,no=110,missing=109
								109:leaf=-0.0138067
								110:leaf=-0.0277694
							86:[f244<0.161728] yes=111,no=112,missing=111
								111:leaf=0.00136207
								112:leaf=-0.0203491
					46:[f88<0.18655] yes=67,no=68,missing=67
						67:[f152<1] yes=87,no=88,missing=87
							87:leaf=-0.0348109
							88:leaf=-0.0179697
						68:leaf=-0.0144755
			14:[f36<0.144089] yes=29,no=30,missing=30
				29:[f37<0.593575] yes=47,no=48,missing=48
					47:leaf=-0.00331069
					48:leaf=-0.0252694
				30:[f671<31.5] yes=49,no=50,missing=49
					49:leaf=-0.0351177
					50:leaf=-0.018191
booster[5]:
0:[f38<0.327269] yes=1,no=2,missing=2
	1:[f37<0.459556] yes=3,no=4,missing=4
		3:[f245<0.0802324] yes=7,no=8,missing=7
			7:[f25<-410] yes=15,no=16,missing=15
				15:[f38<0.145095] yes=31,no=32,missing=32
					31:[f73<13] yes=57,no=58,missing=57
						57:[f93<1.5] yes=75,no=76,missing=75
							75:[f245<0.0445932] yes=99,no=100,missing=99
								99:leaf=-0.00806566
								100:leaf=0.0146113
							76:[f73<11] yes=101,no=102,missing=101
								101:leaf=-0.00604777
								102:leaf=-0.0249114
						58:[f245<0.0487587] yes=77,no=78,missing=77
							77:leaf=-0.00614578
							78:leaf=-0.0244102
					32:[f243<100125] yes=59,no=60,missing=59
						59:[f28<0.5] yes=79,no=80,missing=80
							79:[f241<0.0834525] yes=103,no=104,missing=104
								103:leaf=-0.0192144
								104:leaf=-0.0323821
							80:[f1<25227] yes=105,no=106,missing=105
								105:leaf=-0.0196915
								106:leaf=0.00820749
						60:[f93<8.5] yes=81,no=82,missing=82
							81:leaf=0.00669477
							82:[f243<122625] yes=107,no=108,missing=107
								107:leaf=0.000430134
								108:leaf=-0.0216481
				16:[f38<0.241206] yes=33,no=34,missing=34
					33:leaf=-0.0109863
					34:leaf=0.0173727
			8:[f242<1.08081] yes=17,no=18,missing=17
				17:leaf=-0.0342226
				18:leaf=-0.0162194
		4:[f38<0.139809] yes=9,no=10,missing=10
			9:[f4<132750] yes=19,no=20,missing=19
				19:[f243<39375] yes=35,no=36,missing=35
					35:leaf=-0.0166754
					36:leaf=0.00523682
				20:[f73<10] yes=37,no=38,missing=37
					37:leaf=-0.00603714
					38:[f36<0.477761] yes=61,no=62,missing=62
						61:leaf=-0.0132806
						62:[f94<0.0204795] yes=83,no=84,missing=83
							83:leaf=-0.0343036
							84:leaf=-0.0186941
			10:[f36<0.200881] yes=21,no=22,missing=22
				21:[f243<75375] yes=39,no=40,missing=39
					39:leaf=0.00422408
					40:leaf=-0.0219804
				22:[f87<0.01365] yes=41,no=42,missing=41
					41:[f25<-521] yes=63,no=64,missing=63
						63:[f688<-422] yes=85,no=86,missing=85
							85:[f91<5.5] yes=109,no=110,missing=109
								109:leaf=-0.0328593
								110:leaf=-0.0190523
							86:leaf=-0.012643
						64:[f24<-1184.5] yes=87,no=88,missing=87
							87:leaf=-0.0230316
							88:leaf=-0.00664392
					42:leaf=-0.00984184
	2:[f37<0.072005] yes=5,no=6,missing=6
		5:[f23<-12962] yes=11,no=12,missing=11
			11:[f38<0.589358] yes=23,no=24,missing=24
				23:[f38<0.532584] yes=43,no=44,missing=44
					43:leaf=-0.0193622
					44:leaf=-0.00532872
				24:[f24<-390] yes=45,no=46,missing=46
					45:leaf=-0.0331924
					46:leaf=-0.0171986
			12:[f77<1] yes=25,no=26,missing=25
				25:[f94<0.0148425] yes=47,no=48,missing=47
					47:leaf=-0.0220446
					48:leaf=0.00568768
				26:leaf=0.0205572
		6:[f37<0.464489] yes=13,no=14,missing=13
			13:[f241<0.159588] yes=27,no=28,missing=28
				27:[f84<0.2352] yes=49,no=50,missing=49
					49:[f36<0.114774] yes=65,no=66,missing=66
						65:leaf=-0.0086564
						66:[f67<0.48955] yes=89,no=90,missing=89
							89:[f245<0.113719] yes=111,no=112,missing=111
								111:leaf=-0.0285212
								112:leaf=-0.00662009
							90:leaf=-0.00524547
					50:[f125<1] yes=67,no=68,missing=67
						67:leaf=-0.0237774
						68:leaf=0.00753225
				28:[f23<-9295] yes=51,no=52,missing=51
					51:[f38<0.361445] yes=69,no=70,missing=70
						69:[f10<0.5] yes=91,no=92,missing=92
							91:leaf=-0.0283527
							92:leaf=-0.0100634
						70:[f401<11] yes=93,no=94,missing=94
							93:leaf=-0.014433
							94:leaf=-0.0332894
					52:leaf=-0.00994609
			14:[f36<0.171413] yes=29,no=30,missing=30
				29:[f37<0.577704] yes=53,no=54,missing=54
					53:[f25<-2859] yes=71,no=72,missing=71
						71:leaf=-0.000499828
						72:leaf=-0.0147995
					54:leaf=-0.0320777
				30:[f243<15375] yes=55,no=56,missing=55
					55:leaf=-0.0163626
					56:[f10<6.5] yes=73,no=74,missing=74
						73:[f25<-99] yes=95,no=96,missing=95
							95:leaf=-0.0344536
							96:[f25<-69] yes=113,no=114,missing=113
								113:leaf=-0.00459246
								114:leaf=-0.0302199
						74:[f3<1.65375e+06] yes=97,no=98,missing=97
							97:[f27<-271] yes=115,no=116,missing=115
								115:leaf=-0.0319646
								116:leaf=-0.0184866
							98:leaf=-0.00942474
booster[6]:
0:[f38<0.328859] yes=1,no=2,missing=2
	1:[f37<0.458932] yes=3,no=4,missing=4
		3:[f4<173250] yes=7,no=8,missing=7
			7:[f38<0.145095] yes=15,no=16,missing=16
				15:[f38<0.104797] yes=31,no=32,missing=32
					31:[f3<452250] yes=57,no=58,missing=58
						57:[f38<0.0573283] yes=89,no=90,missing=90
							89:leaf=0.0093347
							90:[f38<0.0875925] yes=113,no=114,missing=114
								113:leaf=-0.0243176
								114:leaf=-0.00604511
						58:leaf=-0.0305905
					32:[f23<-12909] yes=59,no=60,missing=59
						59:leaf=0.0163094
						60:leaf=-0.0134261
				16:[f36<0.330914] yes=33,no=34,missing=34
					33:[f245<0.0505278] yes=61,no=62,missing=61
						61:leaf=0.00328765
						62:leaf=-0.0213654
					34:[f94<0.0067405] yes=63,no=64,missing=63
						63:leaf=-0.00927836
						64:[f79<0.058] yes=91,no=92,missing=92
							91:leaf=-0.0143021
							92:[f37<0.434134] yes=115,no=116,missing=116
								115:leaf=-0.0305327
								116:leaf=-0.0153514
			8:[f37<0.232653] yes=17,no=18,missing=18
				17:[f25<-2983] yes=35,no=36,missing=35
					35:leaf=-0.0110289
					36:[f98<1] yes=65,no=66,missing=65
						65:leaf=0.00851078
						66:leaf=0.0265479
				18:[f73<9] yes=37,no=38,missing=37
					37:leaf=0.00404596
					38:[f243<182250] yes=67,no=68,missing=67
						67:[f245<0.0393734] yes=93,no=94,missing=93
							93:leaf=-0.00881438
							94:leaf=-0.0265186
						68:leaf=-0.00604639
		4:[f36<0.409756] yes=9,no=10,missing=10
			9:[f24<-600] yes=19,no=20,missing=19
				19:[f28<0.5] yes=39,no=40,missing=39
					39:[f38<0.128128] yes=69,no=70,missing=70
						69:leaf=-0.00616861
						70:[f36<0.202306] yes=95,no=96,missing=96
							95:leaf=-0.0167801
							96:[f25<-4388] yes=117,no=118,missing=117
								117:leaf=-0.0139812
								118:leaf=-0.0331998
					40:leaf=-0.00221973
				20:[f37<0.589474] yes=41,no=42,missing=42
					41:leaf=-0.0189592
					42:leaf=0.00609621
			10:[f94<0.0033315] yes=21,no=22,missing=21
				21:leaf=-0.00673821
				22:[f107<0.9048] yes=43,no=44,missing=43
					43:[f28<1.5] yes=71,no=72,missing=71
						71:[f4<159750] yes=97,no=98,missing=97
							97:[f90<0.01165] yes=119,no=120,missing=119
								119:leaf=-0.0288754
								120:leaf=-0.0136225
							98:leaf=-0.0333957
						72:leaf=-0.012272
					44:leaf=-0.00910121
	2:[f37<0.242042] yes=5,no=6,missing=6
		5:[f23<-13014] yes=11,no=12,missing=11
			11:[f11<0.2758] yes=23,no=24,missing=23
				23:[f38<0.496567] yes=45,no=46,missing=46
					45:[f4<195750] yes=73,no=74,missing=73
						73:leaf=-0.0260783
						74:leaf=0.00229316
					46:[f23<-23630] yes=75,no=76,missing=75
						75:leaf=-0.0153979
						76:[f73<6] yes=99,no=100,missing=99
							99:leaf=-0.0164534
							100:leaf=-0.032693
				24:leaf=-0.00531346
			12:[f73<13] yes=25,no=26,missing=25
				25:[f38<0.834281] yes=47,no=48,missing=48
					47:[f239<1] yes=77,no=78,missing=77
						77:[f242<0.657972] yes=101,no=102,missing=101
							101:leaf=-0.0316811
							102:leaf=-0.0144993
						78:leaf=-0.0114352
					48:[f4<84150] yes=79,no=80,missing=79
						79:leaf=0.0100241
						80:[f92<0.5] yes=103,no=104,missing=104
							103:leaf=-0.0285857
							104:leaf=-0.00664039
				26:[f23<-10059] yes=49,no=50,missing=49
					49:[f25<-3576] yes=81,no=82,missing=81
						81:leaf=-0.0193316
						82:[f33<0.05175] yes=105,no=106,missing=105
							105:[f24<-782] yes=123,no=124,missing=124
								123:leaf=-0.0145998
								124:leaf=0.00952568
							106:leaf=0.0280167
					50:[f37<0.0936358] yes=83,no=84,missing=84
						83:leaf=-0.00335018
						84:leaf=-0.0262294
		6:[f36<0.143336] yes=13,no=14,missing=14
			13:[f1<20205] yes=27,no=28,missing=27
				27:leaf=-0.0312102
				28:[f4<173250] yes=51,no=52,missing=51
					51:leaf=0.0016373
					52:leaf=-0.0201869
			14:[f38<0.473152] yes=29,no=30,missing=29
				29:[f117<1] yes=53,no=54,missing=53
					53:[f28<0.5] yes=85,no=86,missing=85
						85:[f688<-101] yes=107,no=108,missing=107
							107:[f36<0.262168] yes=125,no=126,missing=126
								125:leaf=-0.0246275
								126:leaf=-0.0321694
							108:leaf=-0.0135228
						86:[f145<1] yes=109,no=110,missing=109
							109:[f11<0.1748] yes=127,no=128,missing=127
								127:leaf=-0.0288764
								128:leaf=-0.0117689
							110:[f24<-456] yes=129,no=130,missing=130
								129:leaf=-0.0217367
								130:leaf=0.00443936
					54:leaf=-0.0042356
				30:[f37<0.250587] yes=55,no=56,missing=56
					55:leaf=-0.0155149
					56:[f671<31.5] yes=87,no=88,missing=87
						87:[f25<-134] yes=111,no=112,missing=111
							111:leaf=-0.0340274
							112:[f37<0.522663] yes=133,no=134,missing=134
								133:leaf=-0.00467705
								134:leaf=-0.0299523
						88:leaf=-0.0180958
booster[7]:
0:[f38<0.142432] yes=1,no=2,missing=2
	1:[f37<0.161205] yes=3,no=4,missing=4
		3:[f243<69187.5] yes=7,no=8,missing=7
			7:leaf=-0.00710159
			8:leaf=0.0175936
		4:[f4<132750] yes=9,no=10,missing=9
			9:[f38<0.104122] yes=15,no=16,missing=16
				15:[f24<-645] yes=27,no=28,missing=27
					27:leaf=-0.0281222
					28:leaf=0.00489051
				16:[f3<319500] yes=29,no=30,missing=30
					29:leaf=-0.00884739
					30:leaf=0.023486
			10:[f73<11] yes=17,no=18,missing=17
				17:[f24<-1175.5] yes=31,no=32,missing=31
					31:leaf=-0.0178951
					32:leaf=0.0103567
				18:[f105<0.98585] yes=33,no=34,missing=33
					33:[f82<0.008] yes=49,no=50,missing=49
						49:[f122<1] yes=69,no=70,missing=69
							69:[f26<-1097] yes=89,no=90,missing=89
								89:leaf=-0.026139
								90:leaf=-0.00516372
							70:leaf=-0.0313592
						50:leaf=-0.0338961
					34:leaf=-0.00547603
	2:[f37<0.241247] yes=5,no=6,missing=6
		5:[f23<-13020] yes=11,no=12,missing=11
			11:[f38<0.381651] yes=19,no=20,missing=20
				19:[f67<0.60415] yes=35,no=36,missing=36
					35:[f74<0.06645] yes=51,no=52,missing=51
						51:leaf=-0.0322355
						52:leaf=-0.009685
					36:[f73<14] yes=53,no=54,missing=53
						53:[f243<75375] yes=71,no=72,missing=71
							71:leaf=-0.0250669
							72:leaf=0.00347688
						54:leaf=0.018575
				20:[f11<0.2758] yes=37,no=38,missing=37
					37:[f37<0.0184227] yes=55,no=56,missing=56
						55:leaf=-0.0148262
						56:[f161<1] yes=73,no=74,missing=73
							73:[f97<1] yes=91,no=92,missing=91
								91:leaf=-0.031628
								92:leaf=-0.0177562
							74:leaf=-0.0152493
					38:leaf=-0.0114503
			12:[f122<1] yes=21,no=22,missing=21
				21:[f94<0.014492] yes=39,no=40,missing=39
					39:[f94<0.0080435] yes=57,no=58,missing=57
						57:[f1<25290] yes=75,no=76,missing=75
							75:[f24<-574] yes=93,no=94,missing=94
								93:leaf=-0.0242951
								94:leaf=-0.00293759
							76:leaf=0.00936693
						58:[f14<0.0702] yes=77,no=78,missing=78
							77:leaf=-0.00525373
							78:[f242<0.212905] yes=95,no=96,missing=95
								95:leaf=-0.0142111
								96:leaf=-0.031918
					40:[f37<0.0723206] yes=59,no=60,missing=60
						59:[f38<0.681881] yes=79,no=80,missing=80
							79:leaf=0.0031072
							80:leaf=0.0271461
						60:[f37<0.220374] yes=81,no=82,missing=82
							81:[f53<1] yes=97,no=98,missing=97
								97:leaf=0.00592876
								98:leaf=-0.0204896
							82:leaf=0.00947236
				22:[f73<14] yes=41,no=42,missing=41
					41:leaf=-0.0311241
					42:leaf=-0.0119447
		6:[f38<0.43562] yes=13,no=14,missing=13
			13:[f36<0.148581] yes=23,no=24,missing=24
				23:[f26<-179] yes=43,no=44,missing=43
					43:[f25<-2784] yes=61,no=62,missing=61
						61:leaf=-0.00612986
						62:leaf=-0.0265401
					44:leaf=0.00593736
				24:[f29<1.5] yes=45,no=46,missing=45
					45:[f245<0.0464801] yes=63,no=64,missing=63
						63:[f105<0.96075] yes=83,no=84,missing=84
							83:leaf=-0.0125657
							84:[f92<7.5] yes=99,no=100,missing=100
								99:leaf=-0.0326255
								100:leaf=-0.017043
						64:[f241<0.050469] yes=85,no=86,missing=86
							85:[f73<7] yes=101,no=102,missing=101
								101:leaf=-0.00140019
								102:leaf=-0.0247544
							86:[f245<0.049026] yes=103,no=104,missing=103
								103:leaf=-0.0225968
								104:leaf=-0.0305035
					46:[f241<0.100629] yes=65,no=66,missing=65
						65:leaf=0.00259709
						66:leaf=-0.0256131
			14:[f37<0.552781] yes=25,no=26,missing=26
				25:[f25<-134] yes=47,no=48,missing=47
					47:[f111<1] yes=67,no=68,missing=67
						67:[f74<0.20345] yes=87,no=88,missing=87
							87:leaf=-0.0315099
							88:leaf=-0.0156446
						68:leaf=-0.0141906
					48:leaf=-0.00621944
				26:leaf=-0.0338363
booster[8]:
0:[f38<0.140679] yes=1,no=2,missing=2
	1:[f37<0.159957] yes=3,no=4,missing=4
		3:[f38<0.0744851] yes=7,no=8,missing=8
			7:leaf=-0.00812946
			8:leaf=0.0146774
		4:[f4<132750] yes=9,no=10,missing=9
			9:[f25<-3551] yes=15,no=16,missing=15
				15:leaf=0.0103075
				16:[f3<290250] yes=27,no=28,missing=28
					27:leaf=-0.0251052
					28:leaf=-0.00304028
			10:[f23<-11363] yes=17,no=18,missing=17
				17:[f17<2] yes=29,no=30,missing=29
					29:[f36<0.511477] yes=49,no=50,missing=50
						49:[f241<0.102113] yes=75,no=76,missing=76
							75:leaf=-0.0255424
							76:leaf=-0.000758405
						50:[f4<155250] yes=77,no=78,missing=77
							77:leaf=-0.0154207
							78:leaf=-0.0318939
					30:leaf=-0.00522794
				18:[f245<0.0577413] yes=31,no=32,missing=31
					31:[f25<-1460] yes=51,no=52,missing=51
						51:leaf=-0.00545325
						52:leaf=-0.023786
					32:leaf=0.00161881
	2:[f37<0.338014] yes=5,no=6,missing=5
		5:[f23<-14606] yes=11,no=12,missing=11
			11:[f38<0.324101] yes=19,no=20,missing=20
				19:[f4<173250] yes=33,no=34,missing=33
					33:[f77<1] yes=53,no=54,missing=53
						53:leaf=-0.0283278
						54:leaf=-0.00935182
					34:[f38<0.232082] yes=55,no=56,missing=56
						55:leaf=-0.00585622
						56:leaf=0.0172396
				20:[f90<0.1056] yes=35,no=36,missing=35
					35:[f37<0.331731] yes=57,no=58,missing=57
						57:[f4<168750] yes=79,no=80,missing=79
							79:leaf=-0.0320851
							80:[f174<1] yes=99,no=100,missing=99
								99:leaf=-0.0287062
								100:leaf=-0.00670495
						58:leaf=-0.0100325
					36:leaf=-0.0120327
			12:[f38<0.497469] yes=21,no=22,missing=21
				21:[f96<3] yes=37,no=38,missing=37
					37:[f27<-6500.5] yes=59,no=60,missing=59
						59:[f36<0.67798] yes=81,no=82,missing=82
							81:leaf=-0.0227163
							82:[f23<-10113] yes=101,no=102,missing=101
								101:leaf=0.0202066
								102:leaf=-0.0158774
						60:[f73<14] yes=83,no=84,missing=83
							83:[f36<0.292721] yes=103,no=104,missing=104
								103:leaf=-0.0190693
								104:leaf=-0.0295868
							84:[f73<15] yes=105,no=106,missing=105
								105:leaf=0.0061715
								106:leaf=-0.0172883
					38:[f27<-2985] yes=61,no=62,missing=61
						61:[f243<64125] yes=85,no=86,missing=85
							85:[f36<0.167356] yes=107,no=108,missing=107
								107:leaf=0.00602549
								108:leaf=-0.0184509
							86:leaf=-0.0277181
						62:[f4<108000] yes=87,no=88,missing=87
							87:leaf=-0.0154368
							88:[f24<-1062] yes=109,no=110,missing=110
								109:leaf=-0.00562376
								110:leaf=0.0170516
				22:[f238<1] yes=39,no=40,missing=39
					39:[f37<0.0934185] yes=63,no=64,missing=64
						63:leaf=-0.00948003
						64:[f1<40410] yes=89,no=90,missing=89
							89:[f241<0.0124609] yes=111,no=112,missing=111
								111:leaf=-0.0136723
								112:leaf=-0.0321873
							90:leaf=-0.0132359
					40:[f17<1] yes=65,no=66,missing=65
						65:leaf=0.00508684
						66:[f23<-11538] yes=91,no=92,missing=91
							91:leaf=-0.00846548
							92:leaf=-0.0274932
		6:[f38<0.400542] yes=13,no=14,missing=13
			13:[f28<1.5] yes=23,no=24,missing=23
				23:[f117<1] yes=41,no=42,missing=41
					41:[f732<11092.5] yes=67,no=68,missing=67
						67:[f245<0.0466146] yes=93,no=94,missing=93
							93:[f92<7.5] yes=113,no=114,missing=114
								113:leaf=-0.0322883
								114:leaf=-0.00920685
							94:[f25<-377] yes=115,no=116,missing=115
								115:leaf=-0.0287723
								116:leaf=-0.0184153
						68:leaf=-0.00868973
					42:leaf=-0.00704291
				24:[f241<0.0489684] yes=43,no=44,missing=43
					43:leaf=0.00270543
					44:[f11<0.2438] yes=69,no=70,missing=70
						69:leaf=-0.0141355
						70:leaf=-0.0290152
			14:[f36<0.190297] yes=25,no=26,missing=26
				25:[f245<0.0679195] yes=45,no=46,missing=45
					45:[f93<13] yes=71,no=72,missing=72
						71:leaf=-0.0135261
						72:leaf=-0.0324295
					46:leaf=-0.00792657
				26:[f193<1] yes=47,no=48,missing=47
					47:[f16<0.2702] yes=73,no=74,missing=73
						73:[f601<21] yes=95,no=96,missing=95
							95:leaf=-0.0328093
							96:leaf=-0.0190233
						74:[f20<0.09345] yes=97,no=98,missing=98
							97:leaf=-0.00756921
							98:leaf=-0.0277165
					48:leaf=-0.0169857
booster[9]:
0:[f38<0.150546] yes=1,no=2,missing=2
	1:[f37<0.640191] yes=3,no=4,missing=4
		3:[f98<1] yes=7,no=8,missing=7
			7:[f3<452250] yes=15,no=16,missing=16
				15:[f2<367639] yes=27,no=28,missing=27
					27:[f25<-4106] yes=49,no=50,missing=49
						49:leaf=0.00340305
						50:[f11<0.116] yes=75,no=76,missing=76
							75:leaf=-0.00697867
							76:leaf=-0.0278988
					28:[f36<0.0681099] yes=51,no=52,missing=51
						51:leaf=-0.00679393
						52:leaf=0.0198219
				16:[f14<0.095] yes=29,no=30,missing=29
					29:[f10<3.5] yes=53,no=54,missing=54
						53:leaf=-0.0299028
						54:leaf=-0.010822
					30:leaf=-0.00498895
			8:[f94<0.019395] yes=17,no=18,missing=17
				17:[f26<-1008.5] yes=31,no=32,missing=31
					31:leaf=-0.00567315
					32:[f38<0.106158] yes=55,no=56,missing=56
						55:leaf=0.00783969
						56:leaf=0.0276669
				18:[f26<-283.5] yes=33,no=34,missing=33
					33:leaf=-0.0232241
					34:leaf=-0.00103634
		4:[f73<11] yes=9,no=10,missing=9
			9:leaf=-0.0131672
			10:leaf=-0.0316161
	2:[f37<0.336706] yes=5,no=6,missing=6
		5:[f38<0.471355] yes=11,no=12,missing=11
			11:[f241<0.100549] yes=19,no=20,missing=20
				19:[f37<0.26646] yes=35,no=36,missing=36
					35:[f25<-224] yes=57,no=58,missing=57
						57:[f241<0.0402418] yes=77,no=78,missing=78
							77:[f27<-3008] yes=99,no=100,missing=99
								99:leaf=-0.0259836
								100:leaf=-0.00996225
							78:[f38<0.396221] yes=101,no=102,missing=102
								101:leaf=-8.95079e-05
								102:leaf=-0.0133112
						58:leaf=0.0134514
					36:[f159<1] yes=59,no=60,missing=59
						59:[f18<2.5] yes=79,no=80,missing=79
							79:leaf=-0.0324081
							80:leaf=-0.0148714
						60:leaf=-0.00358686
				20:[f36<0.205433] yes=37,no=38,missing=38
					37:leaf=-0.00335658
					38:[f38<0.267168] yes=61,no=62,missing=62
						61:[f243<120375] yes=81,no=82,missing=81
							81:[f244<0.162163] yes=103,no=104,missing=103
								103:leaf=-0.0279769
								104:leaf=-0.00782363
							82:leaf=0.00806967
						62:[f8<1.5] yes=83,no=84,missing=83
							83:[f37<0.0944424] yes=105,no=106,missing=106
								105:leaf=-0.0186331
								106:leaf=-0.0295236
							84:leaf=-0.0112903
			12:[f25<-779] yes=21,no=22,missing=21
				21:[f37<0.0252091] yes=39,no=40,missing=40
					39:leaf=-0.00639643
					40:[f84<0.2477] yes=63,no=64,missing=63
						63:[f155<1] yes=85,no=86,missing=85
							85:[f4<288000] yes=107,no=108,missing=107
								107:leaf=-0.031658
								108:leaf=-0.0193914
							86:[f93<7.5] yes=109,no=110,missing=109
								109:leaf=-0.0277641
								110:leaf=-0.00845623
						64:leaf=-0.0118257
				22:[f36<0.263869] yes=41,no=42,missing=41
					41:[f243<51562.5] yes=65,no=66,missing=65
						65:leaf=0.0052657
						66:[f94<0.018505] yes=87,no=88,missing=87
							87:leaf=-0.0280811
							88:leaf=-0.00409751
					42:leaf=-0.0276013
		6:[f38<0.473152] yes=13,no=14,missing=13
			13:[f91<2.5] yes=23,no=24,missing=23
				23:[f27<-1584] yes=43,no=44,missing=43
					43:[f105<0.94905] yes=67,no=68,missing=68
						67:leaf=-0.0124679
						68:[f76<0.2808] yes=89,no=90,missing=89
							89:[f3<452250] yes=111,no=112,missing=111
								111:leaf=-0.0294688
								112:leaf=-0.0324969
							90:leaf=-0.0157542
					44:[f87<0.00975] yes=69,no=70,missing=69
						69:[f37<0.349917] yes=91,no=92,missing=91
							91:leaf=-0.00782485
							92:[f135<1] yes=113,no=114,missing=113
								113:leaf=-0.028707
								114:leaf=-0.01034
						70:leaf=-0.00505629
				24:[f38<0.467762] yes=45,no=46,missing=45
					45:[f105<0.98235] yes=71,no=72,missing=71
						71:[f25<-388] yes=93,no=94,missing=93
							93:[f2<1.54087e+06] yes=115,no=116,missing=115
								115:leaf=-0.0292227
								116:leaf=-0.0130468
							94:[f24<-1270.5] yes=117,no=118,missing=118
								117:leaf=-0.0244293
								118:leaf=0.00121477
						72:[f106<0.98285] yes=95,no=96,missing=96
							95:leaf=0.00158831
							96:[f36<0.402393] yes=119,no=120,missing=120
								119:leaf=-0.00393182
								120:leaf=-0.0242697
					46:leaf=0.000778761
			14:[f36<0.144089] yes=25,no=26,missing=26
				25:leaf=-0.0132104
				26:[f193<1] yes=47,no=48,missing=47
					47:[f91<13.5] yes=73,no=74,missing=74
						73:leaf=-0.0323932
						74:leaf=-0.018509
					48:leaf=-0.013731
booster[10]:
0:[f38<0.281519] yes=1,no=2,missing=2
	1:[f37<0.201745] yes=3,no=4,missing=4
		3:[f4<175500] yes=7,no=8,missing=7
			7:[f26<-777.5] yes=15,no=16,missing=15
				15:leaf=0.00181785
				16:[f24<-2212.5] yes=29,no=30,missing=29
					29:leaf=-0.0304109
					30:[f244<0.16868] yes=49,no=50,missing=49
						49:leaf=-0.0219515
						50:leaf=-0.00190919
			8:[f36<0.65187] yes=17,no=18,missing=18
				17:leaf=-0.00356536
				18:leaf=0.0235677
		4:[f38<0.142875] yes=9,no=10,missing=10
			9:[f36<0.477761] yes=19,no=20,missing=20
				19:[f94<0.0173205] yes=31,no=32,missing=31
					31:leaf=0.00541745
					32:[f245<0.0483031] yes=51,no=52,missing=51
						51:leaf=0.00168471
						52:[f91<0.5] yes=75,no=76,missing=76
							75:leaf=-0.0246255
							76:leaf=-0.0101047
				20:[f244<0.25025] yes=33,no=34,missing=33
					33:[f24<-339] yes=53,no=54,missing=53
						53:[f84<0.0449] yes=77,no=78,missing=78
							77:leaf=0.00411679
							78:[f96<3] yes=101,no=102,missing=101
								101:leaf=-0.0291788
								102:leaf=-0.0110888
						54:leaf=-0.0018799
					34:leaf=0.00179804
			10:[f83<0.0789] yes=21,no=22,missing=22
				21:[f241<0.10111] yes=35,no=36,missing=36
					35:[f94<0.0214355] yes=55,no=56,missing=55
						55:[f16<0.03755] yes=79,no=80,missing=79
							79:leaf=-0.0270648
							80:leaf=-0.00356174
						56:[f84<0.04195] yes=81,no=82,missing=82
							81:leaf=0.0224665
							82:leaf=-0.00977825
					36:[f103<0.06825] yes=57,no=58,missing=58
						57:[f74<0.02585] yes=83,no=84,missing=83
							83:leaf=-0.0322874
							84:[f245<0.0505275] yes=103,no=104,missing=103
								103:leaf=-0.00770767
								104:leaf=-0.0218917
						58:leaf=0.00159537
				22:[f26<-0.5] yes=37,no=38,missing=37
					37:[f36<0.157454] yes=59,no=60,missing=60
						59:leaf=-0.00868019
						60:[f244<0.0673707] yes=85,no=86,missing=85
							85:[f23<-13094] yes=105,no=106,missing=105
								105:leaf=-0.00394782
								106:leaf=-0.0233294
							86:[f81<0.19925] yes=107,no=108,missing=107
								107:leaf=-0.0302885
								108:leaf=-0.0129314
					38:[f19<1] yes=61,no=62,missing=61
						61:leaf=0.00613722
						62:[f241<0.0730617] yes=87,no=88,missing=87
							87:leaf=-0.0278604
							88:leaf=-0.0116953
	2:[f37<0.344399] yes=5,no=6,missing=5
		5:[f23<-13014] yes=11,no=12,missing=11
			11:[f38<0.332051] yes=23,no=24,missing=24
				23:[f1<22506.8] yes=39,no=40,missing=39
					39:leaf=-0.0233724
					40:leaf=0.0102196
				24:[f25<-309] yes=41,no=42,missing=41
					41:[f67<0.51045] yes=63,no=64,missing=63
						63:[f37<0.0401159] yes=89,no=90,missing=90
							89:[f24<-390] yes=109,no=110,missing=110
								109:leaf=-0.0236448
								110:leaf=-0.00306529
							90:[f36<0.359307] yes=111,no=112,missing=112
								111:leaf=-0.0171454
								112:leaf=-0.0299138
						64:leaf=-0.0082506
					42:[f110<1] yes=65,no=66,missing=65
						65:leaf=-0.000429763
						66:leaf=-0.0228642
			12:[f37<0.0721909] yes=25,no=26,missing=26
				25:[f38<0.488455] yes=43,no=44,missing=44
					43:leaf=-0.0198306
					44:[f37<0.0434482] yes=67,no=68,missing=68
						67:leaf=-0.00440943
						68:leaf=0.026
				26:[f125<1] yes=45,no=46,missing=45
					45:leaf=-0.0303891
					46:[f38<0.382503] yes=69,no=70,missing=70
						69:[f1<21744] yes=91,no=92,missing=91
							91:leaf=-0.0171137
							92:leaf=0.0127913
						70:[f241<0.0574437] yes=93,no=94,missing=93
							93:[f114<1] yes=113,no=114,missing=113
								113:leaf=-0.0149439
								114:leaf=0.00622263
							94:[f107<0.7246] yes=115,no=116,missing=115
								115:leaf=-0.0253987
								116:leaf=-0.00884823
		6:[f711<22736.2] yes=13,no=14,missing=13
			13:[f117<1] yes=27,no=28,missing=27
				27:[f25<-131] yes=47,no=48,missing=47
					47:[f5<0.5] yes=71,no=72,missing=72
						71:[f36<0.15083] yes=95,no=96,missing=96
							95:[f37<0.579056] yes=117,no=118,missing=118
								117:leaf=-0.0125947
								118:leaf=-0.0284568
							96:[f689<-2908] yes=119,no=120,missing=120
								119:leaf=-0.015143
								120:leaf=-0.0315482
						72:[f28<1.5] yes=97,no=98,missing=97
							97:[f3<1.58175e+06] yes=121,no=122,missing=121
								121:leaf=-0.0289578
								122:leaf=-0.00745896
							98:leaf=-0.011359
					48:[f38<0.441848] yes=73,no=74,missing=74
						73:leaf=-0.00214133
						74:[f24<-541.5] yes=99,no=100,missing=100
							99:[f25<-86] yes=123,no=124,missing=123
								123:leaf=-0.0120655
								124:leaf=-0.0310545
							100:leaf=-0.00766896
				28:leaf=-0.0119422
			14:leaf=-0.00862336
booster[11]:
0:[f37<0.338014] yes=1,no=2,missing=2
	1:[f38<0.361445] yes=3,no=4,missing=4
		3:[f1<20198.2] yes=7,no=8,missing=7
			7:[f94<0.0087455] yes=15,no=16,missing=15
				15:[f143<1] yes=31,no=32,missing=31
					31:leaf=-0.019786
					32:leaf=0.00896322
				16:[f243<114750] yes=33,no=34,missing=33
					33:[f36<0.294303] yes=59,no=60,missing=60
						59:leaf=-0.00882731
						60:[f27<-8298] yes=83,no=84,missing=83
							83:leaf=-0.0121195
							84:leaf=-0.0328022
					34:leaf=-0.00927069
			8:[f14<0.07625] yes=17,no=18,missing=18
				17:[f243<73500] yes=35,no=36,missing=35
					35:leaf=-0.0254592
					36:leaf=-0.00276124
				18:[f129<1] yes=37,no=38,missing=37
					37:[f25<-3861] yes=61,no=62,missing=61
						61:leaf=-0.0121436
						62:[f23<-18351] yes=85,no=86,missing=85
							85:leaf=-0.00883517
							86:[f26<-703.5] yes=99,no=100,missing=99
								99:leaf=0.0216557
								100:leaf=0.00368928
					38:leaf=-0.0203245
		4:[f23<-12605] yes=9,no=10,missing=9
			9:[f174<1] yes=19,no=20,missing=19
				19:[f37<0.0241815] yes=39,no=40,missing=40
					39:leaf=-0.0132752
					40:[f60<1] yes=63,no=64,missing=63
						63:[f25<-132] yes=87,no=88,missing=87
							87:[f97<1] yes=101,no=102,missing=101
								101:leaf=-0.0306007
								102:leaf=-0.0171934
							88:leaf=-0.0109758
						64:leaf=-0.0141589
				20:[f243<108750] yes=41,no=42,missing=41
					41:[f25<-3371] yes=65,no=66,missing=65
						65:leaf=-0.0313752
						66:[f23<-16932] yes=89,no=90,missing=89
							89:[f25<-1962] yes=103,no=104,missing=103
								103:leaf=-0.0122322
								104:leaf=-0.0285856
							90:[f73<13] yes=105,no=106,missing=105
								105:leaf=0.00584436
								106:leaf=-0.0138583
					42:leaf=-0.00356021
			10:[f37<0.0721909] yes=21,no=22,missing=22
				21:[f94<0.0148425] yes=43,no=44,missing=43
					43:[f10<0.5] yes=67,no=68,missing=67
						67:leaf=0.00360464
						68:leaf=-0.0246426
					44:leaf=0.0168105
				22:[f36<0.115658] yes=45,no=46,missing=46
					45:leaf=0.000668537
					46:[f167<1] yes=69,no=70,missing=69
						69:[f241<0.0442997] yes=91,no=92,missing=91
							91:[f25<-1021] yes=107,no=108,missing=107
								107:leaf=-0.0197937
								108:leaf=0.00518507
							92:[f23<-12264] yes=109,no=110,missing=109
								109:leaf=-0.00639035
								110:leaf=-0.0268013
						70:leaf=0.00133726
	2:[f38<0.139809] yes=5,no=6,missing=6
		5:[f4<132750] yes=11,no=12,missing=11
			11:[f2<251100] yes=23,no=24,missing=23
				23:leaf=-0.0211448
				24:[f38<0.103457] yes=47,no=48,missing=48
					47:leaf=-0.00750341
					48:leaf=0.0242043
			12:[f73<11] yes=25,no=26,missing=25
				25:[f26<-954.5] yes=49,no=50,missing=49
					49:leaf=-0.0202045
					50:leaf=0.00808486
				26:[f23<-10990] yes=51,no=52,missing=51
					51:[f36<0.445612] yes=71,no=72,missing=72
						71:leaf=-0.0110454
						72:leaf=-0.0311193
					52:leaf=-0.0102571
		6:[f36<0.150704] yes=13,no=14,missing=14
			13:[f27<-6771.5] yes=27,no=28,missing=27
				27:leaf=0.00107685
				28:[f1<28809] yes=53,no=54,missing=53
					53:[f37<0.485087] yes=73,no=74,missing=74
						73:leaf=-0.0128883
						74:leaf=-0.029979
					54:[f27<-2055] yes=75,no=76,missing=75
						75:leaf=0.0010917
						76:leaf=-0.0187169
			14:[f38<0.473152] yes=29,no=30,missing=29
				29:[f28<1.5] yes=55,no=56,missing=55
					55:[f117<1] yes=77,no=78,missing=77
						77:[f36<0.401257] yes=93,no=94,missing=93
							93:[f91<5.5] yes=111,no=112,missing=111
								111:leaf=-0.0282718
								112:leaf=-0.0183784
							94:[f88<0.21185] yes=113,no=114,missing=113
								113:leaf=-0.0316412
								114:leaf=-0.0118046
						78:leaf=-0.00465014
					56:[f241<0.0489684] yes=79,no=80,missing=79
						79:leaf=-0.000945838
						80:leaf=-0.0229192
				30:[f671<31.5] yes=57,no=58,missing=57
					57:[f193<1] yes=81,no=82,missing=81
						81:[f243<17437.5] yes=97,no=98,missing=97
							97:leaf=-0.0184045
							98:leaf=-0.0315773
						82:leaf=-0.011893
					58:leaf=-0.00875789
booster[12]:
0:[f37<0.236078] yes=1,no=2,missing=1
	1:[f25<-3373] yes=3,no=4,missing=3
		3:[f73<17] yes=7,no=8,missing=7
			7:[f90<0.0784] yes=15,no=16,missing=15
				15:[f93<15.5] yes=25,no=26,missing=25
					25:leaf=-0.0289553
					26:[f94<0.0184215] yes=37,no=38,missing=37
						37:leaf=-0.0216839
						38:leaf=-0.00291426
				16:leaf=-0.0106888
			8:leaf=-0.00313509
		4:[f93<2.5] yes=9,no=10,missing=10
			9:leaf=0.0062739
			10:[f23<-16843] yes=17,no=18,missing=17
				17:[f4<162000] yes=27,no=28,missing=27
					27:[f94<0.0073175] yes=39,no=40,missing=39
						39:leaf=-0.0137734
						40:leaf=-0.0320158
					28:[f3<456750] yes=41,no=42,missing=42
						41:leaf=0.0132186
						42:[f24<-2760] yes=55,no=56,missing=55
							55:leaf=-0.0226223
							56:leaf=-0.00771517
				18:[f122<1] yes=29,no=30,missing=29
					29:[f1<16119] yes=43,no=44,missing=43
						43:[f30<0.02] yes=57,no=58,missing=58
							57:[f24<-980.5] yes=75,no=76,missing=76
								75:leaf=-0.0178727
								76:leaf=0.00901779
							58:[f1<10991.2] yes=77,no=78,missing=77
								77:leaf=-0.0164527
								78:leaf=-0.0315946
						44:[f82<0.0915] yes=59,no=60,missing=60
							59:[f245<0.0545025] yes=79,no=80,missing=79
								79:leaf=-0.02984
								80:leaf=-0.00325552
							60:[f132<1] yes=81,no=82,missing=81
								81:leaf=0.0193503
								82:leaf=-0.00509331
					30:[f25<-448] yes=45,no=46,missing=45
						45:[f238<1] yes=61,no=62,missing=61
							61:leaf=-0.031019
							62:leaf=-0.0141723
						46:leaf=-0.0041722
	2:[f36<0.134373] yes=5,no=6,missing=6
		5:[f26<-200] yes=11,no=12,missing=11
			11:[f245<0.0511244] yes=19,no=20,missing=19
				19:leaf=-0.0281889
				20:[f242<0.499981] yes=31,no=32,missing=31
					31:leaf=0.00123873
					32:leaf=-0.0230407
			12:leaf=0.00413971
		6:[f37<0.548499] yes=13,no=14,missing=14
			13:[f578<69709.5] yes=21,no=22,missing=22
				21:leaf=-0.00703803
				22:[f24<-3025] yes=33,no=34,missing=33
					33:[f397<-598] yes=47,no=48,missing=47
						47:[f36<0.230205] yes=63,no=64,missing=64
							63:leaf=-0.00944102
							64:[f680<10442.6] yes=83,no=84,missing=83
								83:leaf=-0.0302645
								84:leaf=-0.0193639
						48:leaf=-0.00639854
					34:[f85<0.0103] yes=49,no=50,missing=49
						49:[f79<0.1809] yes=65,no=66,missing=65
							65:[f25<-129] yes=85,no=86,missing=85
								85:leaf=-0.0265773
								86:leaf=-0.0128226
							66:[f74<0.1299] yes=87,no=88,missing=88
								87:leaf=0.00496773
								88:leaf=-0.0232211
						50:[f20<0.0571] yes=67,no=68,missing=68
							67:[f26<-1271] yes=89,no=90,missing=89
								89:leaf=-0.0256676
								90:leaf=0.00543321
							68:leaf=-0.0294786
			14:[f696<218064] yes=23,no=24,missing=23
				23:[f29<0.5] yes=35,no=36,missing=35
					35:[f94<0.0027875] yes=51,no=52,missing=51
						51:[f13<0.0441] yes=69,no=70,missing=69
							69:leaf=-0.0298305
							70:leaf=-0.000145547
						52:[f106<0.95555] yes=71,no=72,missing=72
							71:[f244<0.163647] yes=91,no=92,missing=91
								91:leaf=-0.0261101
								92:leaf=-0.00186719
							72:[f25<-119] yes=93,no=94,missing=93
								93:leaf=-0.0308399
								94:leaf=-0.0230782
					36:[f242<0.838272] yes=53,no=54,missing=53
						53:[f129<1] yes=73,no=74,missing=73
							73:[f11<0.21855] yes=95,no=96,missing=95
								95:leaf=-0.0283866
								96:leaf=-0.0119236
							74:[f143<1] yes=97,no=98,missing=97
								97:leaf=-0.0268285
								98:leaf=-0.000997732
						54:leaf=-0.00601577
				24:leaf=-0.00669114
booster[13]:
0:[f38<0.142432] yes=1,no=2,missing=2
	1:[f37<0.640191] yes=3,no=4,missing=4
		3:[f84<0.0449] yes=7,no=8,missing=8
			7:[f27<-3551] yes=15,no=16,missing=15
				15:leaf=0.0202493
				16:leaf=-0.010937
			8:[f93<16.5] yes=17,no=18,missing=18
				17:[f27<-4010] yes=27,no=28,missing=27
					27:leaf=-0.0112967
					28:leaf=-0.0270736
				18:[f23<-18009] yes=29,no=30,missing=29
					29:[f1<27688.5] yes=45,no=46,missing=45
						45:leaf=-0.0261915
						46:leaf=-0.00824382
					30:[f2<234000] yes=47,no=48,missing=47
						47:leaf=-0.0172282
						48:[f38<0.103116] yes=63,no=64,missing=64
							63:[f244<0.1482] yes=87,no=88,missing=87
								87:leaf=0.00868962
								88:leaf=-0.0159397
							64:[f2<421704] yes=89,no=90,missing=89
								89:leaf=0.0274545
								90:leaf=0.00399238
		4:[f73<11] yes=9,no=10,missing=9
			9:leaf=-0.00408789
			10:leaf=-0.0283653
	2:[f37<0.344399] yes=5,no=6,missing=6
		5:[f38<0.458795] yes=11,no=12,missing=11
			11:[f23<-14153] yes=19,no=20,missing=19
				19:[f4<155250] yes=31,no=32,missing=31
					31:[f37<0.333075] yes=49,no=50,missing=50
						49:[f94<0.006936] yes=65,no=66,missing=65
							65:leaf=-0.013988
							66:[f132<1] yes=91,no=92,missing=91
								91:leaf=-0.016628
								92:leaf=-0.0311779
						50:leaf=-0.00933327
					32:[f38<0.328065] yes=51,no=52,missing=52
						51:[f38<0.264348] yes=67,no=68,missing=68
							67:leaf=-0.00864762
							68:leaf=0.0191832
						52:[f174<1] yes=69,no=70,missing=69
							69:[f10<2.5] yes=93,no=94,missing=93
								93:leaf=-0.0299696
								94:leaf=-0.0120519
							70:leaf=-0.000699007
				20:[f79<0.04035] yes=33,no=34,missing=34
					33:leaf=0.0118325
					34:[f96<3] yes=53,no=54,missing=53
						53:[f1<21894.8] yes=71,no=72,missing=71
							71:[f93<12.5] yes=95,no=96,missing=96
								95:leaf=-0.0107184
								96:leaf=-0.0270917
							72:[f70<0.64585] yes=97,no=98,missing=98
								97:leaf=-0.0291186
								98:leaf=-0.00851224
						54:[f37<0.0494037] yes=73,no=74,missing=74
							73:leaf=0.0158211
							74:[f36<0.198891] yes=99,no=100,missing=100
								99:leaf=0.00756827
								100:leaf=-0.0164946
			12:[f25<-147] yes=21,no=22,missing=21
				21:[f37<0.0248798] yes=35,no=36,missing=36
					35:leaf=-0.00859653
					36:[f36<0.216385] yes=55,no=56,missing=56
						55:[f12<0.03225] yes=75,no=76,missing=75
							75:leaf=-0.00370933
							76:leaf=-0.021546
						56:[f73<8] yes=77,no=78,missing=77
							77:[f27<-3791.5] yes=101,no=102,missing=101
								101:leaf=-0.0276865
								102:leaf=-0.00748357
							78:[f30<0.3] yes=103,no=104,missing=103
								103:leaf=-0.0298298
								104:leaf=-0.00809799
				22:leaf=-0.00575925
		6:[f38<0.449855] yes=13,no=14,missing=13
			13:[f36<0.401257] yes=23,no=24,missing=23
				23:[f28<0.5] yes=37,no=38,missing=37
					37:[f25<-124] yes=57,no=58,missing=57
						57:[f27<-1381.5] yes=79,no=80,missing=79
							79:[f106<0.96945] yes=105,no=106,missing=106
								105:leaf=-0.0166554
								106:leaf=-0.0281659
							80:[f27<-1280] yes=107,no=108,missing=107
								107:leaf=-0.00190783
								108:leaf=-0.0233158
						58:[f243<103500] yes=81,no=82,missing=81
							81:leaf=-0.0239342
							82:leaf=0.0112038
					38:[f104<0.97545] yes=59,no=60,missing=60
						59:leaf=0.00410276
						60:[f244<0.146089] yes=83,no=84,missing=83
							83:[f145<1] yes=109,no=110,missing=109
								109:leaf=-0.0145592
								110:leaf=0.0085041
							84:[f10<3.5] yes=111,no=112,missing=111
								111:leaf=-0.0259412
								112:leaf=-0.00535297
				24:[f90<0.2243] yes=39,no=40,missing=39
					39:leaf=-0.0307377
					40:leaf=-0.0113329
			14:[f36<0.144089] yes=25,no=26,missing=26
				25:[f38<0.534379] yes=41,no=42,missing=42
					41:leaf=-0.0227969
					42:leaf=-0.000478117
				26:[f671<31.5] yes=43,no=44,missing=43
					43:[f241<0.00744334] yes=61,no=62,missing=62
						61:leaf=-0.0168792
						62:[f677<580.804] yes=85,no=86,missing=85
							85:leaf=-0.0308496
							86:leaf=-0.0151232
					44:leaf=-0.0138189
booster[14]:
0:[f38<0.297841] yes=1,no=2,missing=2
	1:[f37<0.45026] yes=3,no=4,missing=4
		3:[f161<1] yes=7,no=8,missing=7
			7:[f25<-410] yes=15,no=16,missing=15
				15:[f2<247388] yes=29,no=30,missing=29
					29:[f73<17] yes=49,no=50,missing=49
						49:[f138<1] yes=73,no=74,missing=73
							73:leaf=-0.030177
							74:leaf=-0.0149365
						50:leaf=-0.00839931
					30:[f26<-0.5] yes=51,no=52,missing=51
						51:[f12<0.07755] yes=75,no=76,missing=75
							75:[f84<0.01895] yes=99,no=100,missing=99
								99:leaf=-0.0152379
								100:leaf=0.0012858
							76:[f74<0.10285] yes=101,no=102,missing=102
								101:leaf=-0.0294874
								102:leaf=-0.00769129
						52:[f73<11] yes=77,no=78,missing=77
							77:leaf=0.0182622
							78:leaf=-0.0127107
				16:[f38<0.204445] yes=31,no=32,missing=32
					31:leaf=-0.00935033
					32:leaf=0.0143404
			8:leaf=0.00585409
		4:[f36<0.472147] yes=9,no=10,missing=10
			9:[f38<0.150546] yes=17,no=18,missing=18
				17:[f24<-1646] yes=33,no=34,missing=33
					33:leaf=0.00987259
					34:[f243<81000] yes=53,no=54,missing=53
						53:leaf=0.000433271
						54:leaf=-0.0231476
				18:[f82<0.05305] yes=35,no=36,missing=36
					35:leaf=-0.00213941
					36:[f26<-319] yes=55,no=56,missing=55
						55:[f10<3.5] yes=79,no=80,missing=80
							79:leaf=-0.0277586
							80:leaf=-0.0125765
						56:leaf=-0.00863555
			10:[f23<-8837] yes=19,no=20,missing=19
				19:[f84<0.0084] yes=37,no=38,missing=38
					37:leaf=-0.00801585
					38:[f71<0.0625] yes=57,no=58,missing=58
						57:[f26<-462] yes=81,no=82,missing=81
							81:leaf=-0.0224073
							82:leaf=0.00268495
						58:[f38<0.140245] yes=83,no=84,missing=84
							83:[f243<48375] yes=103,no=104,missing=103
								103:leaf=-0.00221621
								104:leaf=-0.0253722
							84:[f107<0.8606] yes=105,no=106,missing=105
								105:leaf=-0.0301918
								106:leaf=-0.0141626
				20:leaf=-0.00607179
	2:[f37<0.236078] yes=5,no=6,missing=5
		5:[f23<-13014] yes=11,no=12,missing=11
			11:[f38<0.332051] yes=21,no=22,missing=22
				21:leaf=-0.00737009
				22:[f11<0.26495] yes=39,no=40,missing=39
					39:[f162<1] yes=59,no=60,missing=59
						59:[f25<-309] yes=85,no=86,missing=85
							85:[f93<20.5] yes=107,no=108,missing=107
								107:leaf=-0.0282155
								108:leaf=-0.0135011
							86:leaf=-0.0125153
						60:leaf=-0.0132287
					40:leaf=-0.00777289
			12:[f28<0.5] yes=23,no=24,missing=23
				23:[f125<1] yes=41,no=42,missing=41
					41:[f82<0.0969] yes=61,no=62,missing=61
						61:leaf=-0.0292706
						62:leaf=-0.0070838
					42:[f25<-3093] yes=63,no=64,missing=63
						63:[f241<0.247197] yes=87,no=88,missing=88
							87:leaf=-0.0280199
							88:leaf=-0.0115725
						64:[f27<-1116] yes=89,no=90,missing=89
							89:[f23<-10282] yes=109,no=110,missing=109
								109:leaf=0.0124204
								110:leaf=-0.00977059
							90:leaf=-0.0226091
				24:[f38<0.376377] yes=43,no=44,missing=43
					43:leaf=0.0242293
					44:leaf=-0.0171425
		6:[f36<0.143336] yes=13,no=14,missing=14
			13:[f1<20205] yes=25,no=26,missing=25
				25:leaf=-0.0290184
				26:[f25<-2390] yes=45,no=46,missing=45
					45:[f38<0.526292] yes=65,no=66,missing=66
						65:leaf=-0.0235788
						66:leaf=-0.00296016
					46:[f1<30964.5] yes=67,no=68,missing=67
						67:leaf=0.0189459
						68:leaf=-0.00322825
			14:[f697<186688] yes=27,no=28,missing=27
				27:[f5<0.5] yes=47,no=48,missing=48
					47:[f25<-134] yes=69,no=70,missing=69
						69:[f117<1] yes=91,no=92,missing=91
							91:[f73<7] yes=111,no=112,missing=111
								111:leaf=-0.0235787
								112:leaf=-0.0299975
							92:leaf=-0.0122438
						70:[f25<-86] yes=93,no=94,missing=93
							93:leaf=-0.000691596
							94:[f24<-605.5] yes=113,no=114,missing=113
								113:leaf=-0.0268468
								114:leaf=-0.00680114
					48:[f28<1.5] yes=71,no=72,missing=71
						71:[f176<1] yes=95,no=96,missing=95
							95:[f103<0.0062] yes=115,no=116,missing=116
								115:leaf=-0.00863788
								116:leaf=-0.0273498
							96:leaf=-0.0107768
						72:[f242<0.282898] yes=97,no=98,missing=97
							97:leaf=-0.0204737
							98:leaf=0.000711184
				28:leaf=-0.00841226
booster[15]:
0:[f37<0.242523] yes=1,no=2,missing=2
	1:[f23<-13014] yes=3,no=4,missing=3
		3:[f38<0.145095] yes=7,no=8,missing=8
			7:leaf=0.00572011
			8:[f93<2.5] yes=15,no=16,missing=16
				15:leaf=-0.00466517
				16:[f11<0.2758] yes=29,no=30,missing=29
					29:[f25<-224] yes=49,no=50,missing=49
						49:[f162<1] yes=71,no=72,missing=71
							71:[f37<0.0241815] yes=103,no=104,missing=104
								103:leaf=-0.0145167
								104:leaf=-0.0275605
							72:leaf=-0.0115629
						50:leaf=-0.00945001
					30:leaf=-0.00922405
		4:[f122<1] yes=9,no=10,missing=9
			9:[f94<0.014492] yes=17,no=18,missing=17
				17:[f238<1] yes=31,no=32,missing=31
					31:[f24<-536] yes=51,no=52,missing=52
						51:[f27<-5463] yes=73,no=74,missing=73
							73:leaf=-0.00800979
							74:[f73<8] yes=105,no=106,missing=105
								105:leaf=-0.00848935
								106:leaf=-0.0308539
						52:[f91<0.5] yes=75,no=76,missing=76
							75:leaf=-0.0149997
							76:leaf=0.00509488
					32:leaf=0.00199071
				18:[f37<0.0723206] yes=33,no=34,missing=34
					33:leaf=0.0209433
					34:[f20<0.0561] yes=53,no=54,missing=54
						53:leaf=-0.0224985
						54:[f1<16643.2] yes=79,no=80,missing=79
							79:[f19<1] yes=107,no=108,missing=107
								107:leaf=-0.000770369
								108:leaf=-0.0272068
							80:[f36<0.329202] yes=109,no=110,missing=110
								109:leaf=-0.00773207
								110:leaf=0.0130436
			10:[f25<-716] yes=19,no=20,missing=19
				19:leaf=-0.0275193
				20:leaf=-0.00853262
	2:[f38<0.297841] yes=5,no=6,missing=6
		5:[f36<0.412598] yes=11,no=12,missing=12
			11:[f81<0.0565] yes=21,no=22,missing=22
				21:[f242<0.347369] yes=35,no=36,missing=35
					35:leaf=-0.00746913
					36:leaf=0.0148435
				22:[f33<0.0862] yes=37,no=38,missing=37
					37:[f64<1] yes=55,no=56,missing=55
						55:[f38<0.150546] yes=81,no=82,missing=82
							81:[f1<25233.8] yes=111,no=112,missing=111
								111:leaf=0.0177409
								112:leaf=-0.00506973
							82:[f93<11.5] yes=113,no=114,missing=114
								113:leaf=0.00570801
								114:leaf=-0.0203038
						56:[f73<14] yes=83,no=84,missing=83
							83:leaf=-0.0270602
							84:leaf=-0.0104081
					38:[f108<0.78195] yes=57,no=58,missing=57
						57:leaf=-0.0292378
						58:leaf=-0.00850366
			12:[f94<0.0027875] yes=23,no=24,missing=23
				23:leaf=0.00608333
				24:[f37<0.4597] yes=39,no=40,missing=40
					39:[f26<-852] yes=59,no=60,missing=59
						59:[f76<0.05455] yes=85,no=86,missing=86
							85:leaf=-0.0130339
							86:leaf=-0.0289983
						60:[f1<34794] yes=87,no=88,missing=87
							87:[f1<30541.5] yes=115,no=116,missing=115
								115:leaf=-0.0138466
								116:leaf=0.0245347
							88:leaf=-0.0248844
					40:[f104<0.97645] yes=61,no=62,missing=62
						61:[f25<-2520] yes=89,no=90,missing=89
							89:[f20<0.03335] yes=117,no=118,missing=118
								117:leaf=-0.0280433
								118:leaf=-0.0125409
							90:leaf=-0.00360644
						62:[f104<0.99575] yes=91,no=92,missing=91
							91:[f38<0.139809] yes=119,no=120,missing=120
								119:leaf=-0.0216538
								120:leaf=-0.029572
							92:leaf=-0.0109391
		6:[f36<0.203614] yes=13,no=14,missing=14
			13:[f1<19833.8] yes=25,no=26,missing=25
				25:[f27<-944.5] yes=41,no=42,missing=41
					41:leaf=-0.0299794
					42:leaf=-0.0112635
				26:[f132<1] yes=43,no=44,missing=43
					43:leaf=0.0115174
					44:[f30<0.085] yes=63,no=64,missing=64
						63:[f242<0.35007] yes=93,no=94,missing=93
							93:leaf=-0.0183776
							94:leaf=0.0111386
						64:[f66<1] yes=95,no=96,missing=95
							95:leaf=-0.0288764
							96:leaf=-0.00741555
			14:[f38<0.473152] yes=27,no=28,missing=27
				27:[f91<2.5] yes=45,no=46,missing=45
					45:[f85<0.04535] yes=65,no=66,missing=65
						65:[f73<8] yes=97,no=98,missing=97
							97:[f20<0.01005] yes=121,no=122,missing=122
								121:leaf=0.0042393
								122:leaf=-0.0259226
							98:[f27<-90] yes=123,no=124,missing=123
								123:leaf=-0.029009
								124:leaf=-0.0176497
						66:leaf=-0.0155444
					46:[f38<0.467762] yes=67,no=68,missing=67
						67:[f35<0.05175] yes=99,no=100,missing=100
							99:[f36<0.745069] yes=125,no=126,missing=126
								125:leaf=-0.0209081
								126:leaf=0.00217773
							100:[f23<-23264] yes=127,no=128,missing=127
								127:leaf=-0.00585905
								128:leaf=-0.0253824
						68:leaf=0.00252929
				28:[f671<31.5] yes=47,no=48,missing=47
					47:[f37<0.250587] yes=69,no=70,missing=70
						69:leaf=-0.0108107
						70:[f27<-22.5] yes=101,no=102,missing=101
							101:[f676<825.907] yes=129,no=130,missing=129
								129:leaf=-0.0298758
								130:leaf=-0.0145409
							102:leaf=-0.0131318
					48:leaf=-0.0122768
booster[16]:
0:[f38<0.281519] yes=1,no=2,missing=2
	1:[f37<0.201745] yes=3,no=4,missing=4
		3:[f4<175500] yes=7,no=8,missing=7
			7:[f244<0.217875] yes=15,no=16,missing=15
				15:[f66<1] yes=31,no=32,missing=31
					31:[f245<0.0551016] yes=53,no=54,missing=53
						53:[f245<0.0489248] yes=87,no=88,missing=87
							87:leaf=-0.0181801
							88:leaf=0.0100239
						54:leaf=-0.0237353
					32:leaf=-0.0286957
				16:leaf=0.00493635
			8:[f23<-13466] yes=17,no=18,missing=17
				17:leaf=0.0226818
				18:leaf=-0.00519912
		4:[f38<0.142875] yes=9,no=10,missing=10
			9:[f4<132750] yes=19,no=20,missing=19
				19:[f91<0.5] yes=33,no=34,missing=34
					33:[f27<-4615.5] yes=55,no=56,missing=55
						55:leaf=0.00223792
						56:leaf=-0.0237292
					34:[f38<0.106499] yes=57,no=58,missing=58
						57:leaf=-0.00357324
						58:leaf=0.0243515
				20:[f23<-11363] yes=35,no=36,missing=35
					35:[f73<10] yes=59,no=60,missing=59
						59:leaf=-0.00766255
						60:[f36<0.477761] yes=89,no=90,missing=90
							89:leaf=-0.0139215
							90:[f73<13] yes=121,no=122,missing=121
								121:leaf=-0.0185178
								122:leaf=-0.031097
					36:[f245<0.067274] yes=61,no=62,missing=61
						61:[f245<0.0476659] yes=91,no=92,missing=91
							91:leaf=-0.00137481
							92:leaf=-0.0224578
						62:leaf=0.00473185
			10:[f11<0.08785] yes=21,no=22,missing=22
				21:[f244<0.153187] yes=37,no=38,missing=37
					37:[f114<1] yes=63,no=64,missing=63
						63:[f242<0.395024] yes=93,no=94,missing=93
							93:leaf=-0.0257031
							94:[f24<-1411] yes=123,no=124,missing=123
								123:leaf=-0.016962
								124:leaf=0.00905723
						64:leaf=-0.0296041
					38:[f88<0.0099] yes=65,no=66,missing=65
						65:[f17<1] yes=95,no=96,missing=95
							95:[f1<27135] yes=125,no=126,missing=125
								125:leaf=-0.00495613
								126:leaf=-0.0279558
							96:leaf=0.00343374
						66:leaf=0.0199376
				22:[f36<0.165046] yes=39,no=40,missing=40
					39:leaf=-0.00300458
					40:[f244<0.0520567] yes=67,no=68,missing=67
						67:leaf=-0.0062611
						68:[f38<0.277163] yes=97,no=98,missing=98
							97:[f93<21.5] yes=127,no=128,missing=127
								127:leaf=-0.0274668
								128:leaf=-0.0100172
							98:leaf=-0.010345
	2:[f37<0.344441] yes=5,no=6,missing=5
		5:[f38<0.496567] yes=11,no=12,missing=11
			11:[f241<0.114069] yes=23,no=24,missing=24
				23:[f125<1] yes=41,no=42,missing=41
					41:[f165<1] yes=69,no=70,missing=69
						69:leaf=-0.0281386
						70:leaf=-0.00937169
					42:[f27<-4409] yes=71,no=72,missing=71
						71:[f91<3.5] yes=99,no=100,missing=100
							99:[f241<0.0535236] yes=129,no=130,missing=130
								129:leaf=-0.0278067
								130:leaf=-0.0135782
							100:leaf=0.000531295
						72:[f4<96750] yes=101,no=102,missing=101
							101:[f25<-2119] yes=131,no=132,missing=131
								131:leaf=-0.00709171
								132:leaf=-0.0258798
							102:[f14<0.04825] yes=133,no=134,missing=134
								133:leaf=-0.0225325
								134:leaf=0.00669139
				24:[f8<1.5] yes=43,no=44,missing=43
					43:[f36<0.205814] yes=73,no=74,missing=74
						73:leaf=-0.00411784
						74:[f37<0.13568] yes=103,no=104,missing=104
							103:[f241<0.303045] yes=135,no=136,missing=135
								135:leaf=-0.0195495
								136:leaf=0.00212713
							104:[f37<0.326466] yes=137,no=138,missing=137
								137:leaf=-0.0281592
								138:leaf=-0.00843435
					44:leaf=-0.00658745
			12:[f25<-201] yes=25,no=26,missing=25
				25:[f238<1] yes=45,no=46,missing=45
					45:[f1<40410] yes=75,no=76,missing=75
						75:[f136<1] yes=105,no=106,missing=105
							105:[f37<0.0420388] yes=139,no=140,missing=140
								139:leaf=-0.0153476
								140:leaf=-0.0301078
							106:leaf=-0.0132297
						76:[f24<-1350.5] yes=107,no=108,missing=107
							107:leaf=-0.0251973
							108:leaf=0.00134348
					46:[f36<0.362564] yes=77,no=78,missing=78
						77:leaf=-5.31029e-05
						78:[f241<0.279933] yes=109,no=110,missing=109
							109:[f37<0.16269] yes=141,no=142,missing=142
								141:leaf=-0.0124575
								142:leaf=-0.0276866
							110:leaf=-0.00342332
				26:leaf=-0.00619922
		6:[f37<0.564712] yes=13,no=14,missing=14
			13:[f36<0.126394] yes=27,no=28,missing=28
				27:leaf=-0.00555065
				28:[f133<1] yes=47,no=48,missing=47
					47:[f24<-307] yes=79,no=80,missing=79
						79:[f91<8.5] yes=111,no=112,missing=111
							111:[f1<5366.25] yes=143,no=144,missing=143
								143:leaf=-0.00973508
								144:leaf=-0.0278832
							112:[f1<24637.5] yes=145,no=146,missing=145
								145:leaf=-0.00168936
								146:leaf=-0.0229278
						80:[f32<0.14095] yes=113,no=114,missing=113
							113:[f25<-642] yes=147,no=148,missing=147
								147:leaf=-0.0253645
								148:leaf=-0.00653723
							114:leaf=0.00470853
					48:[f107<0.7654] yes=81,no=82,missing=81
						81:[f8<0.5] yes=115,no=116,missing=116
							115:leaf=-0.0263877
							116:leaf=-0.0128087
						82:leaf=-0.000824462
			14:[f25<-121] yes=29,no=30,missing=29
				29:[f29<0.5] yes=49,no=50,missing=50
					49:[f82<0.62085] yes=83,no=84,missing=83
						83:[f688<-105] yes=117,no=118,missing=117
							117:[f124<1] yes=149,no=150,missing=149
								149:leaf=-0.0297857
								150:leaf=-0.0171922
							118:leaf=-0.0142451
						84:leaf=-0.0142368
					50:[f13<0.24] yes=85,no=86,missing=85
						85:[f129<1] yes=119,no=120,missing=119
							119:[f242<0.818209] yes=151,no=152,missing=151
								151:leaf=-0.0282243
								152:leaf=-0.0113973
							120:[f37<0.667545] yes=153,no=154,missing=154
								153:leaf=-0.00261727
								154:leaf=-0.0252527
						86:leaf=-0.00529435
				30:[f243<124875] yes=51,no=52,missing=51
					51:leaf=-0.027344
					52:leaf=-0.0055681
booster[17]:
0:[f38<0.281519] yes=1,no=2,missing=2
	1:[f37<0.485374] yes=3,no=4,missing=4
		3:[f161<1] yes=7,no=8,missing=7
			7:[f242<0.478242] yes=15,no=16,missing=15
				15:[f242<0.214502] yes=27,no=28,missing=27
					27:[f26<-212.5] yes=51,no=52,missing=51
						51:[f150<1] yes=79,no=80,missing=79
							79:leaf=-0.00747657
							80:[f64<1] yes=117,no=118,missing=117
								117:leaf=-0.028283
								118:leaf=-0.012778
						52:leaf=-0.00205515
					28:[f1<21044.2] yes=53,no=54,missing=53
						53:[f3<227250] yes=81,no=82,missing=82
							81:leaf=-0.000210865
							82:[f243<48750] yes=119,no=120,missing=119
								119:leaf=-0.00672583
								120:leaf=-0.0268114
						54:[f27<-4700.5] yes=83,no=84,missing=83
							83:[f103<0.06725] yes=121,no=122,missing=122
								121:leaf=0.0272401
								122:leaf=-0.000184053
							84:[f27<-553.5] yes=123,no=124,missing=123
								123:leaf=-0.0126434
								124:leaf=0.00835222
				16:[f243<151875] yes=29,no=30,missing=29
					29:[f73<15] yes=55,no=56,missing=55
						55:[f37<0.437621] yes=85,no=86,missing=86
							85:leaf=-0.0299332
							86:leaf=-0.0123229
						56:[f37<0.312798] yes=87,no=88,missing=88
							87:leaf=0.00525703
							88:leaf=-0.0261218
					30:leaf=-1.09074e-05
			8:leaf=0.00727315
		4:[f688<-437] yes=9,no=10,missing=9
			9:[f23<-12283] yes=17,no=18,missing=17
				17:[f24<-228] yes=31,no=32,missing=31
					31:[f94<0.004981] yes=57,no=58,missing=57
						57:leaf=-0.0101239
						58:[f130<1] yes=89,no=90,missing=89
							89:[f36<0.292989] yes=125,no=126,missing=126
								125:leaf=-0.0107822
								126:leaf=-0.0283393
							90:leaf=-0.0103109
					32:leaf=-0.00669593
				18:[f243<63750] yes=33,no=34,missing=33
					33:[f67<0.1979] yes=59,no=60,missing=60
						59:leaf=0.0138093
						60:[f4<92250] yes=91,no=92,missing=91
							91:leaf=-0.0256638
							92:[f23<-10870] yes=127,no=128,missing=127
								127:leaf=-0.0108288
								128:leaf=0.00325812
					34:[f73<11] yes=61,no=62,missing=61
						61:leaf=-0.00550838
						62:[f88<0.01475] yes=93,no=94,missing=93
							93:leaf=-0.028067
							94:leaf=-0.00850598
			10:leaf=0.00326139
	2:[f37<0.235968] yes=5,no=6,missing=5
		5:[f23<-13014] yes=11,no=12,missing=11
			11:[f38<0.588487] yes=19,no=20,missing=19
				19:[f241<0.0872109] yes=35,no=36,missing=36
					35:[f241<0.057102] yes=63,no=64,missing=64
						63:[f19<1] yes=95,no=96,missing=95
							95:leaf=-0.00647546
							96:leaf=-0.0264034
						64:[f26<-1096] yes=97,no=98,missing=97
							97:leaf=-0.0157774
							98:leaf=0.013422
					36:[f4<66825] yes=65,no=66,missing=65
						65:leaf=-0.00822326
						66:[f94<0.006936] yes=99,no=100,missing=99
							99:leaf=-0.0117676
							100:[f243<150750] yes=129,no=130,missing=129
								129:leaf=-0.0290131
								130:leaf=-0.00922452
				20:[f129<1] yes=37,no=38,missing=37
					37:leaf=-0.0299123
					38:leaf=-0.0148995
			12:[f37<0.0721909] yes=21,no=22,missing=22
				21:[f38<0.524357] yes=39,no=40,missing=40
					39:leaf=-0.0170186
					40:[f10<0.5] yes=67,no=68,missing=67
						67:[f25<-1168] yes=101,no=102,missing=101
							101:leaf=0.0313946
							102:leaf=0.00160615
						68:leaf=-0.00869187
				22:[f73<14] yes=41,no=42,missing=41
					41:[f28<0.5] yes=69,no=70,missing=69
						69:[f25<-1005] yes=103,no=104,missing=103
							103:[f238<1] yes=131,no=132,missing=131
								131:leaf=-0.0293375
								132:leaf=-0.0113792
							104:leaf=-0.00861636
						70:leaf=-0.000525301
					42:[f82<0.06595] yes=71,no=72,missing=71
						71:[f242<0.371984] yes=105,no=106,missing=105
							105:[f23<-10732] yes=133,no=134,missing=133
								133:leaf=-0.00859335
								134:leaf=-0.0274292
							106:leaf=0.00851479
						72:leaf=0.0157846
		6:[f36<0.143336] yes=13,no=14,missing=14
			13:[f244<0.152469] yes=23,no=24,missing=23
				23:[f23<-12672] yes=43,no=44,missing=43
					43:leaf=-0.00684945
					44:leaf=-0.0287056
				24:[f244<0.214372] yes=45,no=46,missing=45
					45:leaf=0.0143301
					46:leaf=-0.0118909
			14:[f38<0.473152] yes=25,no=26,missing=25
				25:[f91<2.5] yes=47,no=48,missing=47
					47:[f27<-4062.5] yes=73,no=74,missing=73
						73:[f107<0.49] yes=107,no=108,missing=108
							107:leaf=-0.00923627
							108:[f74<0.2556] yes=135,no=136,missing=135
								135:leaf=-0.0289855
								136:leaf=-0.00956533
						74:[f25<-75] yes=109,no=110,missing=109
							109:[f37<0.523375] yes=137,no=138,missing=138
								137:leaf=-0.0219476
								138:leaf=-0.0274532
							110:leaf=-0.00447013
					48:[f38<0.467762] yes=75,no=76,missing=75
						75:[f36<0.205643] yes=111,no=112,missing=112
							111:leaf=-0.000855708
							112:[f35<0.05175] yes=139,no=140,missing=140
								139:leaf=-0.00933138
								140:leaf=-0.0242133
						76:leaf=0.00534061
				26:[f671<33.5] yes=49,no=50,missing=49
					49:[f37<0.627395] yes=77,no=78,missing=78
						77:[f25<-133] yes=113,no=114,missing=113
							113:[f111<1] yes=141,no=142,missing=141
								141:leaf=-0.0282083
								142:leaf=-0.0148687
							114:leaf=-0.0131277
						78:leaf=-0.0301289
					50:leaf=-0.0127059
booster[18]:
0:[f37<0.338014] yes=1,no=2,missing=2
	1:[f38<0.471355] yes=3,no=4,missing=3
		3:[f19<1] yes=7,no=8,missing=7
			7:[f241<0.114228] yes=15,no=16,missing=16
				15:[f125<1] yes=31,no=32,missing=31
					31:[f27<-2298.5] yes=55,no=56,missing=55
						55:leaf=-0.0239012
						56:leaf=-0.0031048
					32:[f26<-749.5] yes=57,no=58,missing=57
						57:[f26<-1236] yes=89,no=90,missing=89
							89:leaf=-0.000147217
							90:leaf=0.0218017
						58:[f242<0.259738] yes=91,no=92,missing=91
							91:[f243<84375] yes=123,no=124,missing=123
								123:leaf=-0.00407217
								124:leaf=0.0228138
							92:[f129<1] yes=125,no=126,missing=125
								125:leaf=-0.00483069
								126:leaf=-0.027752
				16:[f84<0.0966] yes=33,no=34,missing=33
					33:[f94<0.006936] yes=59,no=60,missing=59
						59:leaf=-0.00337826
						60:[f129<1] yes=93,no=94,missing=93
							93:[f104<0.98035] yes=127,no=128,missing=128
								127:leaf=-0.0114671
								128:leaf=-0.0287423
							94:leaf=-0.0094657
					34:leaf=0.00219023
			8:[f10<2.5] yes=17,no=18,missing=17
				17:[f37<0.06778] yes=35,no=36,missing=36
					35:[f94<0.0148425] yes=61,no=62,missing=61
						61:[f27<-2905] yes=95,no=96,missing=95
							95:leaf=-0.0225685
							96:leaf=-0.0037917
						62:leaf=0.00260058
					36:[f4<236250] yes=63,no=64,missing=63
						63:[f244<0.234152] yes=97,no=98,missing=97
							97:[f27<-2757.5] yes=129,no=130,missing=129
								129:leaf=-0.0293708
								130:leaf=-0.0205191
							98:[f10<0.5] yes=131,no=132,missing=132
								131:leaf=-0.00292187
								132:leaf=-0.0209892
						64:leaf=-0.00498199
				18:[f25<-2244] yes=37,no=38,missing=37
					37:[f245<0.0489949] yes=65,no=66,missing=65
						65:[f2<660960] yes=99,no=100,missing=99
							99:leaf=0.0122479
							100:leaf=-0.0157459
						66:[f2<372359] yes=101,no=102,missing=101
							101:leaf=-0.0282373
							102:leaf=-0.0124691
					38:[f241<0.125598] yes=67,no=68,missing=68
						67:[f26<-497.5] yes=103,no=104,missing=103
							103:leaf=0.00101866
							104:leaf=-0.0220232
						68:leaf=0.020478
		4:[f37<0.072005] yes=9,no=10,missing=10
			9:[f2<359633] yes=19,no=20,missing=19
				19:leaf=-0.000365251
				20:[f1<30838.5] yes=39,no=40,missing=39
					39:leaf=-0.0274843
					40:leaf=-0.00965493
			10:[f84<0.2477] yes=21,no=22,missing=21
				21:[f25<-810] yes=41,no=42,missing=41
					41:[f4<288000] yes=69,no=70,missing=69
						69:[f36<0.338167] yes=105,no=106,missing=106
							105:[f244<0.177533] yes=133,no=134,missing=133
								133:leaf=-0.0286414
								134:leaf=-0.00877742
							106:leaf=-0.0291826
						70:leaf=-0.0136131
					42:[f23<-16503] yes=71,no=72,missing=71
						71:leaf=-0.0238607
						72:leaf=-0.00264175
				22:leaf=-0.00776008
	2:[f38<0.139809] yes=5,no=6,missing=6
		5:[f36<0.477761] yes=11,no=12,missing=12
			11:[f242<0.238186] yes=23,no=24,missing=23
				23:leaf=-0.0181619
				24:[f245<0.0793021] yes=43,no=44,missing=43
					43:[f27<-5209.5] yes=73,no=74,missing=73
						73:leaf=0.000292556
						74:leaf=0.0211763
					44:leaf=-0.0147039
			12:[f244<0.25229] yes=25,no=26,missing=25
				25:[f83<0.08905] yes=45,no=46,missing=46
					45:[f82<0.06215] yes=75,no=76,missing=76
						75:[f241<0.0688288] yes=107,no=108,missing=107
							107:leaf=-0.0216713
							108:leaf=-0.00787278
						76:leaf=0.00595699
					46:[f238<1] yes=77,no=78,missing=77
						77:[f23<-11137] yes=109,no=110,missing=109
							109:leaf=-0.0279178
							110:leaf=-0.0117296
						78:leaf=-0.00725898
				26:leaf=0.00536776
		6:[f38<0.391914] yes=13,no=14,missing=13
			13:[f28<0.5] yes=27,no=28,missing=27
				27:[f36<0.119097] yes=47,no=48,missing=48
					47:leaf=-0.00905091
					48:[f732<17100] yes=79,no=80,missing=79
						79:[f25<-127] yes=111,no=112,missing=111
							111:[f245<0.0389249] yes=137,no=138,missing=137
								137:leaf=-0.0294953
								138:leaf=-0.0255434
							112:[f4<207000] yes=139,no=140,missing=139
								139:leaf=-0.0249082
								140:leaf=0.00247794
						80:leaf=-0.00565547
				28:[f106<0.97545] yes=49,no=50,missing=50
					49:leaf=0.00287497
					50:[f244<0.118529] yes=81,no=82,missing=81
						81:[f145<1] yes=113,no=114,missing=113
							113:[f92<2.5] yes=141,no=142,missing=142
								141:leaf=-0.0235642
								142:leaf=-0.00223724
							114:leaf=0.00748266
						82:[f13<0.15865] yes=115,no=116,missing=115
							115:[f244<0.314566] yes=143,no=144,missing=143
								143:leaf=-0.0286362
								144:leaf=-0.0111248
							116:leaf=-0.00658811
			14:[f37<0.552757] yes=29,no=30,missing=30
				29:[f36<0.147738] yes=51,no=52,missing=52
					51:leaf=-0.0068168
					52:[f27<-1202] yes=83,no=84,missing=83
						83:[f14<0.257] yes=117,no=118,missing=117
							117:[f74<0.18145] yes=145,no=146,missing=145
								145:leaf=-0.0280932
								146:leaf=-0.0110786
							118:leaf=-0.0113064
						84:[f11<0.0407] yes=119,no=120,missing=120
							119:leaf=0.00250155
							120:[f77<1] yes=147,no=148,missing=147
								147:leaf=-0.0257932
								148:leaf=-0.00669534
				30:[f84<0.4745] yes=53,no=54,missing=53
					53:[f241<0.00603821] yes=85,no=86,missing=86
						85:leaf=-0.0137751
						86:[f729<5062.5] yes=121,no=122,missing=121
							121:leaf=-0.0294386
							122:leaf=-0.0137798
					54:[f70<0.6042] yes=87,no=88,missing=88
						87:leaf=-0.0238521
						88:leaf=-0.0036652
booster[19]:
0:[f38<0.383354] yes=1,no=2,missing=1
	1:[f37<0.344485] yes=3,no=4,missing=3
		3:[f2<381031] yes=7,no=8,missing=7
			7:[f143<1] yes=15,no=16,missing=15
				15:[f245<0.0488492] yes=29,no=30,missing=29
					29:[f8<1] yes=47,no=48,missing=48
						47:leaf=-0.00174397
						48:leaf=-0.0157926
					30:[f77<1] yes=49,no=50,missing=49
						49:leaf=-0.0294417
						50:leaf=-0.0131735
				16:[f238<1] yes=31,no=32,missing=31
					31:[f241<0.0200618] yes=51,no=52,missing=52
						51:leaf=0.00129485
						52:[f20<0.0162] yes=73,no=74,missing=74
							73:leaf=-0.0051487
							74:[f94<0.029709] yes=99,no=100,missing=99
								99:leaf=-0.0256894
								100:leaf=-0.00684516
					32:[f94<0.019245] yes=53,no=54,missing=53
						53:leaf=0.0191446
						54:leaf=-0.0124401
			8:[f38<0.343342] yes=17,no=18,missing=18
				17:[f1<20846.2] yes=33,no=34,missing=33
					33:leaf=-0.0248188
					34:[f76<0.02835] yes=55,no=56,missing=56
						55:leaf=-0.0200216
						56:[f65<1] yes=75,no=76,missing=75
							75:[f27<-9031] yes=101,no=102,missing=101
								101:leaf=-0.0220436
								102:leaf=0.0127245
							76:[f24<-1220] yes=103,no=104,missing=103
								103:leaf=-0.0242938
								104:leaf=0.00506969
				18:[f24<-263] yes=35,no=36,missing=35
					35:[f23<-12630] yes=57,no=58,missing=57
						57:[f84<0.09055] yes=77,no=78,missing=77
							77:[f23<-22218] yes=105,no=106,missing=105
								105:leaf=-0.0105234
								106:leaf=-0.0279073
							78:leaf=-0.00145767
						58:[f19<1] yes=79,no=80,missing=79
							79:[f3<504000] yes=107,no=108,missing=108
								107:leaf=0.0177142
								108:leaf=-0.0119475
							80:[f243<60375] yes=109,no=110,missing=109
								109:leaf=-0.00976611
								110:leaf=-0.0265345
					36:leaf=0.00310247
		4:[f38<0.148711] yes=9,no=10,missing=10
			9:[f37<0.634291] yes=19,no=20,missing=20
				19:[f245<0.037651] yes=37,no=38,missing=37
					37:leaf=-0.0270351
					38:[f242<0.478516] yes=59,no=60,missing=59
						59:[f36<0.452795] yes=81,no=82,missing=81
							81:[f10<2.5] yes=111,no=112,missing=112
								111:leaf=0.0174192
								112:leaf=-0.00441864
							82:leaf=-0.0132631
						60:[f38<0.112119] yes=83,no=84,missing=84
							83:leaf=-0.026812
							84:leaf=-0.00449209
				20:[f35<0.18965] yes=39,no=40,missing=39
					39:leaf=-0.0277033
					40:leaf=-0.00677944
			10:[f36<0.119274] yes=21,no=22,missing=22
				21:leaf=-0.00396851
				22:[f92<5.5] yes=41,no=42,missing=41
					41:[f241<0.0516652] yes=61,no=62,missing=62
						61:[f85<0.00965] yes=85,no=86,missing=85
							85:[f104<0.96895] yes=113,no=114,missing=114
								113:leaf=0.000204709
								114:leaf=-0.0235596
							86:leaf=-0.000870194
						62:[f124<1] yes=87,no=88,missing=87
							87:[f28<1.5] yes=115,no=116,missing=115
								115:leaf=-0.026987
								116:leaf=-0.0158873
							88:leaf=-0.00396939
					42:[f22<0.02735] yes=63,no=64,missing=63
						63:[f103<0.0358] yes=89,no=90,missing=90
							89:leaf=-0.00109625
							90:[f243<37875] yes=117,no=118,missing=117
								117:leaf=-0.00723327
								118:leaf=-0.0265768
						64:leaf=0.00250386
	2:[f37<0.441389] yes=5,no=6,missing=6
		5:[f36<0.110976] yes=11,no=12,missing=12
			11:leaf=0.00181873
			12:[f37<0.0193759] yes=23,no=24,missing=24
				23:leaf=-0.00229352
				24:[f241<0.159588] yes=43,no=44,missing=44
					43:[f84<0.2352] yes=65,no=66,missing=65
						65:[f241<0.141445] yes=91,no=92,missing=92
							91:[f132<1] yes=119,no=120,missing=119
								119:leaf=-0.0167712
								120:leaf=-0.0258028
							92:[f94<0.016625] yes=121,no=122,missing=121
								121:leaf=-0.0232099
								122:leaf=-0.00218833
						66:leaf=0.0037559
					44:[f25<-1232] yes=67,no=68,missing=67
						67:[f683<11794.5] yes=93,no=94,missing=93
							93:[f11<0.0211] yes=123,no=124,missing=124
								123:leaf=-0.018517
								124:leaf=-0.0289827
							94:leaf=-0.0119602
						68:[f245<0.0505988] yes=95,no=96,missing=95
							95:leaf=-0.0262901
							96:[f245<0.0674772] yes=125,no=126,missing=125
								125:leaf=0.00456824
								126:leaf=-0.0194207
		6:[f36<0.171168] yes=13,no=14,missing=14
			13:[f37<0.577704] yes=25,no=26,missing=26
				25:leaf=0.0018644
				26:leaf=-0.0255925
			14:[f601<21] yes=27,no=28,missing=27
				27:[f25<-99] yes=45,no=46,missing=45
					45:[f673<0.685011] yes=69,no=70,missing=70
						69:leaf=-0.0135262
						70:[f92<16.5] yes=97,no=98,missing=98
							97:leaf=-0.0287804
							98:leaf=-0.01414
					46:[f25<-62] yes=71,no=72,missing=71
						71:leaf=-0.00286007
						72:leaf=-0.0250032
				28:leaf=-0.0125329
booster[20]:
0:[f38<0.328859] yes=1,no=2,missing=2
	1:[f37<0.459556] yes=3,no=4,missing=4
		3:[f245<0.0796347] yes=7,no=8,missing=7
			7:[f245<0.0790005] yes=15,no=16,missing=15
				15:[f76<0.02865] yes=29,no=30,missing=30
					29:[f26<-790] yes=51,no=52,missing=51
						51:leaf=-0.0105875
						52:leaf=-0.0276038
					30:[f23<-9457] yes=53,no=54,missing=53
						53:[f25<-4446] yes=67,no=68,missing=67
							67:[f3<416250] yes=85,no=86,missing=86
								85:leaf=-0.00734763
								86:leaf=-0.0250128
							68:[f243<93375] yes=87,no=88,missing=87
								87:leaf=-0.00817772
								88:leaf=0.00690567
						54:[f245<0.0543752] yes=69,no=70,missing=69
							69:leaf=-0.0286837
							70:leaf=-0.0117651
				16:[f36<0.803565] yes=31,no=32,missing=32
					31:leaf=-0.00910965
					32:leaf=0.0170045
			8:[f36<0.320118] yes=17,no=18,missing=17
				17:leaf=-0.0283162
				18:leaf=-0.0106223
		4:[f94<0.0027875] yes=9,no=10,missing=9
			9:leaf=0.00208105
			10:[f36<0.409756] yes=19,no=20,missing=20
				19:[f669<25.5] yes=33,no=34,missing=34
					33:leaf=0.00346565
					34:[f211<1] yes=55,no=56,missing=55
						55:[f26<-1904.5] yes=71,no=72,missing=71
							71:leaf=-0.00481958
							72:[f38<0.127733] yes=89,no=90,missing=90
								89:leaf=-0.00646527
								90:leaf=-0.0246329
						56:leaf=-0.00203332
				20:[f109<0.85955] yes=35,no=36,missing=35
					35:[f67<0.09375] yes=57,no=58,missing=58
						57:[f4<137250] yes=73,no=74,missing=73
							73:leaf=0.00619142
							74:leaf=-0.0228044
						58:[f23<-10958] yes=75,no=76,missing=75
							75:[f244<0.25229] yes=91,no=92,missing=91
								91:leaf=-0.0274325
								92:leaf=-0.0173858
							76:[f11<0.1273] yes=93,no=94,missing=94
								93:leaf=-0.00344531
								94:leaf=-0.0221344
					36:leaf=-0.00784121
	2:[f37<0.072005] yes=5,no=6,missing=6
		5:[f23<-12962] yes=11,no=12,missing=11
			11:[f56<1] yes=21,no=22,missing=21
				21:[f38<0.589358] yes=37,no=38,missing=38
					37:leaf=-0.0125414
					38:leaf=-0.0263358
				22:leaf=-0.0019035
			12:[f94<0.0148425] yes=23,no=24,missing=23
				23:[f94<0.0073175] yes=39,no=40,missing=39
					39:leaf=0.00504932
					40:leaf=-0.0218739
				24:[f94<0.0204795] yes=41,no=42,missing=41
					41:leaf=0.0256782
					42:leaf=0.00539214
		6:[f37<0.5235] yes=13,no=14,missing=13
			13:[f36<0.114777] yes=25,no=26,missing=26
				25:[f244<0.164533] yes=43,no=44,missing=43
					43:leaf=-0.0207438
					44:leaf=0.00900499
				26:[f38<0.564721] yes=45,no=46,missing=45
					45:[f67<0.5104] yes=59,no=60,missing=59
						59:[f24<-522.5] yes=77,no=78,missing=77
							77:[f391<13.5] yes=95,no=96,missing=96
								95:leaf=-0.00299027
								96:leaf=-0.0242163
							78:[f25<-335] yes=97,no=98,missing=97
								97:leaf=-0.0187163
								98:leaf=0.00229922
						60:leaf=-0.000536541
					46:[f82<0.23205] yes=61,no=62,missing=61
						61:[f674<1.1842] yes=79,no=80,missing=79
							79:[f722<450] yes=99,no=100,missing=100
								99:leaf=-0.00882838
								100:leaf=-0.0279939
							80:leaf=-0.00860187
						62:[f88<0.00525] yes=81,no=82,missing=81
							81:leaf=0.00537444
							82:leaf=-0.0229613
			14:[f36<0.171413] yes=27,no=28,missing=28
				27:[f26<-514.5] yes=47,no=48,missing=47
					47:[f38<0.428542] yes=63,no=64,missing=63
						63:leaf=-0.0102376
						64:leaf=-0.0274167
					48:leaf=0.00315213
				28:[f242<0.0665153] yes=49,no=50,missing=49
					49:leaf=-0.00912182
					50:[f117<1] yes=65,no=66,missing=65
						65:[f25<-797] yes=83,no=84,missing=83
							83:[f189<1] yes=101,no=102,missing=101
								101:leaf=-0.0283643
								102:leaf=-0.0173193
							84:[f244<0.0583076] yes=103,no=104,missing=103
								103:leaf=-0.00594886
								104:leaf=-0.0255341
						66:leaf=-0.0104499
booster[21]:
0:[f38<0.281519] yes=1,no=2,missing=2
	1:[f38<0.139809] yes=3,no=4,missing=4
		3:[f245<0.0381598] yes=7,no=8,missing=7
			7:[f79<0.0517] yes=15,no=16,missing=15
				15:leaf=-0.0277035
				16:leaf=0.00175899
			8:[f30<0.0732] yes=17,no=18,missing=17
				17:[f245<0.04874] yes=29,no=30,missing=29
					29:[f241<0.0920171] yes=43,no=44,missing=44
						43:leaf=0.0199462
						44:[f38<0.0814558] yes=69,no=70,missing=70
							69:leaf=-0.0160435
							70:leaf=0.00509574
					30:[f241<0.281768] yes=45,no=46,missing=46
						45:[f73<11] yes=71,no=72,missing=71
							71:[f27<-4561] yes=97,no=98,missing=97
								97:leaf=0.0138486
								98:leaf=-0.0086266
							72:[f98<1] yes=99,no=100,missing=99
								99:leaf=-0.025321
								100:leaf=-0.00510488
						46:leaf=0.00827739
				18:leaf=-0.0269593
		4:[f84<0.00375] yes=9,no=10,missing=10
			9:leaf=0.00311471
			10:[f65<1] yes=19,no=20,missing=19
				19:[f36<0.461317] yes=31,no=32,missing=31
					31:[f85<0.00675] yes=47,no=48,missing=47
						47:[f94<0.029709] yes=73,no=74,missing=73
							73:[f244<0.0673748] yes=101,no=102,missing=101
								101:leaf=0.00403058
								102:leaf=-0.0151794
							74:leaf=-0.0267523
						48:[f244<0.151454] yes=75,no=76,missing=75
							75:leaf=-0.0144646
							76:leaf=0.0167128
					32:[f1<40187.2] yes=49,no=50,missing=49
						49:leaf=-0.0269989
						50:leaf=-0.00928695
				20:[f236<1] yes=33,no=34,missing=33
					33:[f161<1] yes=51,no=52,missing=51
						51:[f79<0.0521] yes=77,no=78,missing=78
							77:leaf=-0.0109353
							78:leaf=-0.0281764
						52:leaf=-0.0108379
					34:leaf=-0.0107167
	2:[f38<0.496567] yes=5,no=6,missing=5
		5:[f24<-974.5] yes=11,no=12,missing=11
			11:[f36<0.112113] yes=21,no=22,missing=22
				21:leaf=-0.00071454
				22:[f28<1.5] yes=35,no=36,missing=35
					35:[f397<-309] yes=53,no=54,missing=53
						53:[f18<3.5] yes=79,no=80,missing=79
							79:[f38<0.494764] yes=103,no=104,missing=103
								103:leaf=-0.0261222
								104:leaf=-0.00914247
							80:[f36<0.249805] yes=105,no=106,missing=106
								105:leaf=0.00956408
								106:leaf=-0.0219273
						54:leaf=-0.00381316
					36:[f27<-1674.5] yes=55,no=56,missing=55
						55:[f104<0.9831] yes=81,no=82,missing=81
							81:[f243<95625] yes=107,no=108,missing=107
								107:leaf=-0.0259511
								108:leaf=-0.0103923
							82:leaf=-0.000338632
						56:leaf=6.90959e-05
			12:[f245<0.051177] yes=23,no=24,missing=23
				23:[f95<3] yes=37,no=38,missing=37
					37:[f27<-404.5] yes=57,no=58,missing=57
						57:[f79<0.03905] yes=83,no=84,missing=84
							83:leaf=-0.00982852
							84:[f38<0.319379] yes=109,no=110,missing=110
								109:leaf=-0.0152984
								110:leaf=-0.0271476
						58:[f16<0.11385] yes=85,no=86,missing=86
							85:leaf=-0.024279
							86:leaf=-0.00166266
					38:[f3<657000] yes=59,no=60,missing=60
						59:[f73<11] yes=87,no=88,missing=87
							87:[f27<-2628] yes=111,no=112,missing=111
								111:leaf=-0.00137334
								112:leaf=0.0161544
							88:leaf=-0.0192263
						60:leaf=-0.0238458
				24:[f159<1] yes=39,no=40,missing=39
					39:[f245<0.0513119] yes=61,no=62,missing=61
						61:leaf=6.81988e-06
						62:[f74<0.0132] yes=89,no=90,missing=90
							89:leaf=-0.00278422
							90:[f73<6] yes=113,no=114,missing=113
								113:leaf=-0.00413776
								114:leaf=-0.0217498
					40:[f244<0.139805] yes=63,no=64,missing=63
						63:[f8<1.5] yes=91,no=92,missing=92
							91:leaf=-0.00931101
							92:leaf=0.0167969
						64:[f132<1] yes=93,no=94,missing=93
							93:leaf=0.0032266
							94:[f2<448884] yes=115,no=116,missing=115
								115:leaf=-0.0274203
								116:leaf=-0.00820833
		6:[f36<0.143336] yes=13,no=14,missing=14
			13:[f23<-11367] yes=25,no=26,missing=25
				25:leaf=-0.0186818
				26:leaf=0.00129939
			14:[f671<35.5] yes=27,no=28,missing=27
				27:[f16<0.2561] yes=41,no=42,missing=41
					41:[f91<13.5] yes=65,no=66,missing=66
						65:[f24<-125.5] yes=95,no=96,missing=95
							95:[f701<36000] yes=117,no=118,missing=118
								117:leaf=-0.0136988
								118:leaf=-0.0276809
							96:[f26<-444] yes=119,no=120,missing=119
								119:leaf=-0.0259339
								120:leaf=-0.00690669
						66:leaf=-0.0149386
					42:[f20<0.08] yes=67,no=68,missing=68
						67:leaf=-0.00267848
						68:leaf=-0.0249295
				28:leaf=-0.0092213
booster[22]:
0:[f38<0.281519] yes=1,no=2,missing=2
	1:[f37<0.203685] yes=3,no=4,missing=4
		3:[f4<175500] yes=7,no=8,missing=7
			7:[f26<-777.5] yes=15,no=16,missing=15
				15:leaf=0.0040587
				16:[f143<1] yes=29,no=30,missing=29
					29:leaf=-0.0282644
					30:[f244<0.169374] yes=51,no=52,missing=51
						51:leaf=-0.0215221
						52:leaf=0.0029389
			8:[f27<-3817] yes=17,no=18,missing=17
				17:leaf=8.00589e-05
				18:leaf=0.0252419
		4:[f36<0.451334] yes=9,no=10,missing=10
			9:[f38<0.134686] yes=19,no=20,missing=20
				19:[f11<0.1268] yes=31,no=32,missing=32
					31:leaf=-0.0134751
					32:[f244<0.15493] yes=53,no=54,missing=53
						53:leaf=0.0194639
						54:leaf=-0.00652306
				20:[f36<0.157454] yes=33,no=34,missing=34
					33:leaf=0.00335904
					34:[f23<-15359] yes=55,no=56,missing=55
						55:leaf=0.00299325
						56:[f26<-1719.5] yes=77,no=78,missing=77
							77:leaf=-0.000485278
							78:[f244<0.215948] yes=103,no=104,missing=103
								103:leaf=-0.0250392
								104:leaf=-0.0108698
			10:[f12<0.0838] yes=21,no=22,missing=22
				21:[f20<0.0299] yes=35,no=36,missing=35
					35:[f104<0.98585] yes=57,no=58,missing=58
						57:[f37<0.560625] yes=79,no=80,missing=80
							79:[f22<0.00905] yes=105,no=106,missing=106
								105:leaf=-0.0257989
								106:leaf=-0.0016365
							80:leaf=-0.0263052
						58:[f14<0.06935] yes=81,no=82,missing=82
							81:leaf=-0.0146832
							82:leaf=0.012131
					36:leaf=0.0115681
				22:[f26<-940.5] yes=37,no=38,missing=37
					37:[f140<1] yes=59,no=60,missing=59
						59:leaf=-0.0295104
						60:leaf=-0.0153234
					38:[f74<0.1036] yes=61,no=62,missing=62
						61:leaf=-0.0278179
						62:[f82<0.11405] yes=83,no=84,missing=84
							83:leaf=0.00399949
							84:[f38<0.260162] yes=107,no=108,missing=108
								107:leaf=-0.019938
								108:leaf=-0.000402176
	2:[f37<0.344399] yes=5,no=6,missing=5
		5:[f23<-12809] yes=11,no=12,missing=11
			11:[f38<0.328859] yes=23,no=24,missing=24
				23:[f4<146250] yes=39,no=40,missing=39
					39:leaf=-0.0187207
					40:leaf=0.0097883
				24:[f67<0.5625] yes=41,no=42,missing=41
					41:[f161<1] yes=63,no=64,missing=63
						63:[f11<0.27115] yes=85,no=86,missing=85
							85:[f24<-278] yes=109,no=110,missing=109
								109:leaf=-0.0258762
								110:leaf=-0.013953
							86:leaf=-0.00814458
						64:[f38<0.674598] yes=87,no=88,missing=88
							87:leaf=0.00327724
							88:leaf=-0.0197505
					42:leaf=-0.000239921
			12:[f122<1] yes=25,no=26,missing=25
				25:[f96<3] yes=43,no=44,missing=43
					43:[f27<-9105.5] yes=65,no=66,missing=65
						65:leaf=0.0116074
						66:[f94<0.025778] yes=89,no=90,missing=89
							89:[f79<0.04035] yes=111,no=112,missing=112
								111:leaf=0.00214225
								112:leaf=-0.0221605
							90:[f1<16283.2] yes=113,no=114,missing=113
								113:leaf=-0.0187568
								114:leaf=0.00434095
					44:[f37<0.0945528] yes=67,no=68,missing=68
						67:leaf=0.0196453
						68:[f38<0.496568] yes=91,no=92,missing=92
							91:[f37<0.248155] yes=115,no=116,missing=116
								115:leaf=-0.00397574
								116:leaf=0.0187381
							92:[f36<0.242396] yes=117,no=118,missing=118
								117:leaf=0.00262606
								118:leaf=-0.0228062
				26:[f36<0.265712] yes=45,no=46,missing=46
					45:leaf=-0.0117428
					46:leaf=-0.0290892
		6:[f711<21656.2] yes=13,no=14,missing=13
			13:[f37<0.564712] yes=27,no=28,missing=28
				27:[f91<4.5] yes=47,no=48,missing=47
					47:[f669<20.5] yes=69,no=70,missing=69
						69:[f241<0.0458293] yes=93,no=94,missing=94
							93:[f84<0.11595] yes=119,no=120,missing=119
								119:leaf=-0.0234155
								120:leaf=-0.00571963
							94:[f36<0.14443] yes=121,no=122,missing=122
								121:leaf=-0.00497836
								122:leaf=-0.0264985
						70:leaf=-0.00514942
					48:[f243<39937.5] yes=71,no=72,missing=71
						71:leaf=0.00258701
						72:[f22<0.0045] yes=95,no=96,missing=95
							95:[f174<1] yes=123,no=124,missing=123
								123:leaf=-0.0265193
								124:leaf=-0.00906045
							96:leaf=-0.00581717
				28:[f28<1.5] yes=49,no=50,missing=49
					49:[f242<0.0682707] yes=73,no=74,missing=73
						73:leaf=-0.00871117
						74:[f12<0.00365] yes=97,no=98,missing=98
							97:leaf=-0.0157029
							98:[f243<16350] yes=125,no=126,missing=125
								125:leaf=-0.0134192
								126:leaf=-0.0275503
					50:[f242<0.377354] yes=75,no=76,missing=75
						75:[f38<0.379114] yes=99,no=100,missing=99
							99:leaf=-0.0121711
							100:leaf=-0.0270371
						76:[f243<75375] yes=101,no=102,missing=101
							101:leaf=-0.0187461
							102:leaf=0.00553292
			14:leaf=-0.00449022
booster[23]:
0:[f38<0.281519] yes=1,no=2,missing=2
	1:[f37<0.501694] yes=3,no=4,missing=4
		3:[f245<0.0799762] yes=7,no=8,missing=7
			7:[f245<0.0790005] yes=15,no=16,missing=15
				15:[f241<0.0928452] yes=31,no=32,missing=32
					31:[f241<0.0640001] yes=53,no=54,missing=54
						53:[f27<-959] yes=77,no=78,missing=77
							77:[f94<0.0080435] yes=103,no=104,missing=103
								103:leaf=0.0017359
								104:leaf=-0.0167984
							78:leaf=0.00543891
						54:[f19<1] yes=79,no=80,missing=79
							79:leaf=0.0201268
							80:leaf=-0.00398657
					32:[f243<102375] yes=55,no=56,missing=55
						55:[f3<654750] yes=81,no=82,missing=82
							81:[f243<43537.5] yes=105,no=106,missing=105
								105:leaf=-0.0114126
								106:leaf=-0.0275452
							82:[f93<23.5] yes=107,no=108,missing=108
								107:leaf=-0.0203307
								108:leaf=0.00857416
						56:[f26<-1068.5] yes=83,no=84,missing=83
							83:leaf=-0.0205563
							84:[f27<-2791.5] yes=109,no=110,missing=109
								109:leaf=0.016846
								110:leaf=-0.0113017
				16:[f73<13] yes=33,no=34,missing=33
					33:leaf=0.021141
					34:leaf=-0.010097
			8:[f27<-4676.5] yes=17,no=18,missing=17
				17:leaf=-0.0110139
				18:leaf=-0.0286865
		4:[f67<0.09375] yes=9,no=10,missing=10
			9:[f4<137250] yes=19,no=20,missing=19
				19:leaf=0.0136025
				20:leaf=-0.0177785
			10:[f94<0.0030955] yes=21,no=22,missing=21
				21:leaf=0.0025632
				22:[f23<-12180] yes=35,no=36,missing=35
					35:[f242<1.02144] yes=57,no=58,missing=57
						57:[f91<5.5] yes=85,no=86,missing=85
							85:leaf=-0.0261884
							86:leaf=-0.00955594
						58:leaf=-0.00925061
					36:[f82<0.0716] yes=59,no=60,missing=60
						59:leaf=-0.00246136
						60:[f243<79503.8] yes=87,no=88,missing=87
